{"learner":{"attributes":{"best_iteration":"999","best_ntree_limit":"1000","scikit_learn":"{\"n_estimators\": 1000, \"objective\": \"reg:squarederror\", \"max_depth\": 5, \"max_leaves\": null, \"max_bin\": null, \"grow_policy\": null, \"learning_rate\": 0.05, \"verbosity\": null, \"booster\": null, \"tree_method\": null, \"gamma\": 0.1, \"min_child_weight\": null, \"max_delta_step\": null, \"subsample\": null, \"sampling_method\": null, \"colsample_bytree\": 0.4, \"colsample_bylevel\": null, \"colsample_bynode\": null, \"reg_alpha\": null, \"reg_lambda\": null, \"scale_pos_weight\": null, \"base_score\": null, \"missing\": NaN, \"num_parallel_tree\": null, \"random_state\": null, \"n_jobs\": null, \"monotone_constraints\": null, \"interaction_constraints\": null, \"importance_type\": null, \"gpu_id\": null, \"validate_parameters\": null, \"predictor\": null, \"enable_categorical\": false, \"max_cat_to_onehot\": null, \"eval_metric\": null, \"early_stopping_rounds\": null, \"callbacks\": null, \"_estimator_type\": \"regressor\"}"},"feature_names":["marka","seri","model","yil","km","vites","yakit","kasa","motorHacim","motorGucu","toplamTramer","sagArkaCamurluk","arkaKaput","solArkaCamurluk","sagArkaKapi","sagOnKapi","tavan","solArkaKapi","solOnKapi","sagOnCamurluk","motorKaputu","solOnCamurluk","onTampon","arkaTampon","agirhasar"],"feature_types":["int","int","int","float","float","int","int","int","float","float","float","int","int","int","int","int","int","int","int","int","int","int","int","int","int"],"gradient_booster":{"model":{"gbtree_model_param":{"num_parallel_tree":"1","num_trees":"1000","size_leaf_vector":"0"},"tree_info":[0,0,0,0,0,0,0,0,0,0,0,0,0,0,0,0,0,0,0,0,0,0,0,0,0,0,0,0,0,0,0,0,0,0,0,0,0,0,0,0,0,0,0,0,0,0,0,0,0,0,0,0,0,0,0,0,0,0,0,0,0,0,0,0,0,0,0,0,0,0,0,0,0,0,0,0,0,0,0,0,0,0,0,0,0,0,0,0,0,0,0,0,0,0,0,0,0,0,0,0,0,0,0,0,0,0,0,0,0,0,0,0,0,0,0,0,0,0,0,0,0,0,0,0,0,0,0,0,0,0,0,0,0,0,0,0,0,0,0,0,0,0,0,0,0,0,0,0,0,0,0,0,0,0,0,0,0,0,0,0,0,0,0,0,0,0,0,0,0,0,0,0,0,0,0,0,0,0,0,0,0,0,0,0,0,0,0,0,0,0,0,0,0,0,0,0,0,0,0,0,0,0,0,0,0,0,0,0,0,0,0,0,0,0,0,0,0,0,0,0,0,0,0,0,0,0,0,0,0,0,0,0,0,0,0,0,0,0,0,0,0,0,0,0,0,0,0,0,0,0,0,0,0,0,0,0,0,0,0,0,0,0,0,0,0,0,0,0,0,0,0,0,0,0,0,0,0,0,0,0,0,0,0,0,0,0,0,0,0,0,0,0,0,0,0,0,0,0,0,0,0,0,0,0,0,0,0,0,0,0,0,0,0,0,0,0,0,0,0,0,0,0,0,0,0,0,0,0,0,0,0,0,0,0,0,0,0,0,0,0,0,0,0,0,0,0,0,0,0,0,0,0,0,0,0,0,0,0,0,0,0,0,0,0,0,0,0,0,0,0,0,0,0,0,0,0,0,0,0,0,0,0,0,0,0,0,0,0,0,0,0,0,0,0,0,0,0,0,0,0,0,0,0,0,0,0,0,0,0,0,0,0,0,0,0,0,0,0,0,0,0,0,0,0,0,0,0,0,0,0,0,0,0,0,0,0,0,0,0,0,0,0,0,0,0,0,0,0,0,0,0,0,0,0,0,0,0,0,0,0,0,0,0,0,0,0,0,0,0,0,0,0,0,0,0,0,0,0,0,0,0,0,0,0,0,0,0,0,0,0,0,0,0,0,0,0,0,0,0,0,0,0,0,0,0,0,0,0,0,0,0,0,0,0,0,0,0,0,0,0,0,0,0,0,0,0,0,0,0,0,0,0,0,0,0,0,0,0,0,0,0,0,0,0,0,0,0,0,0,0,0,0,0,0,0,0,0,0,0,0,0,0,0,0,0,0,0,0,0,0,0,0,0,0,0,0,0,0,0,0,0,0,0,0,0,0,0,0,0,0,0,0,0,0,0,0,0,0,0,0,0,0,0,0,0,0,0,0,0,0,0,0,0,0,0,0,0,0,0,0,0,0,0,0,0,0,0,0,0,0,0,0,0,0,0,0,0,0,0,0,0,0,0,0,0,0,0,0,0,0,0,0,0,0,0,0,0,0,0,0,0,0,0,0,0,0,0,0,0,0,0,0,0,0,0,0,0,0,0,0,0,0,0,0,0,0,0,0,0,0,0,0,0,0,0,0,0,0,0,0,0,0,0,0,0,0,0,0,0,0,0,0,0,0,0,0,0,0,0,0,0,0,0,0,0,0,0,0,0,0,0,0,0,0,0,0,0,0,0,0,0,0,0,0,0,0,0,0,0,0,0,0,0,0,0,0,0,0,0,0,0,0,0,0,0,0,0,0,0,0,0,0,0,0,0,0,0,0,0,0,0,0,0,0,0,0,0,0,0,0,0,0,0,0,0,0,0,0,0,0,0,0,0,0,0,0,0,0,0,0,0,0,0,0,0,0,0,0,0,0,0,0,0,0,0,0,0,0,0,0,0,0,0,0,0,0,0,0,0,0,0,0,0,0,0,0,0,0,0,0,0,0,0,0,0,0,0,0,0,0,0,0,0,0,0,0,0,0,0,0,0,0,0,0,0,0,0,0,0,0,0,0,0,0,0,0,0,0,0,0,0,0,0,0,0,0,0,0,0,0,0,0,0,0,0,0,0,0,0,0,0,0,0,0,0,0,0,0,0,0,0,0,0,0,0,0,0,0,0,0,0,0,0,0,0,0,0,0,0,0,0,0,0,0,0,0,0,0,0,0,0,0,0,0,0,0,0,0,0,0,0,0,0,0,0,0,0,0,0,0,0,0,0,0,0,0,0,0,0,0,0,0,0,0,0,0,0,0,0,0,0,0,0,0,0,0,0,0,0,0],"trees":[{"base_weights":[2.5534427E5,1.6347206E5,3.418237E5,1.5770738E5,5.1458334E5,3.2898806E5,2.2689488E6,1.2086072E5,1.9910802E5,2.7607028E5,7.707248E5,2.8121244E5,4.200772E5,1.2830592E6,5.3172325E6,9.243325E4,1.4373611E5,1.7250739E5,2.3843067E5,2.4312E5,3.9399256E5,5.772597E5,2.2130148E6,2.4219727E5,3.266678E5,3.376957E5,4.8328497E5,1.4947278E6,5.049972E5,5.8363995E6,2.911418E6,7.4271516E4,1.05685164E5,1.25388695E5,1.604396E5,1.5024172E5,1.8243723E5,3.2052538E5,2.2666466E5,1.8512911E5,2.880446E5,2.9929256E5,4.9449947E5,4.544947E5,6.9446894E5,3.415829E5,2.5349995E6,2.2952997E5,2.91607E5,2.9322372E5,3.9211688E5,5.0393234E5,3.077624E5,4.5960638E5,6.891557E5,7.962138E5,1.689247E6,1.00482456E6,3.0178075E5,6.0193745E6,9.63333E5,3.513571E6,1.8933482E6],"categories":[],"categories_nodes":[],"categories_segments":[],"categories_sizes":[],"default_left":[1,1,1,1,1,1,1,1,1,1,1,1,1,1,1,1,1,1,1,1,1,1,1,1,1,1,1,1,1,1,1,0,0,0,0,0,0,0,0,0,0,0,0,0,0,0,0,0,0,0,0,0,0,0,0,0,0,0,0,0,0,0,0],"id":0,"left_children":[1,3,5,7,9,11,13,15,17,19,21,23,25,27,29,31,33,35,37,39,41,43,45,47,49,51,53,55,57,59,61,-1,-1,-1,-1,-1,-1,-1,-1,-1,-1,-1,-1,-1,-1,-1,-1,-1,-1,-1,-1,-1,-1,-1,-1,-1,-1,-1,-1,-1,-1,-1,-1],"loss_changes":[5.947907E14,7.340186E13,9.53217E14,5.446589E13,3.558778E13,1.6660957E14,7.5952175E14,1.2278473E13,1.7551652E13,1.0893132E12,7.740976E13,4.4494653E13,6.8462047E13,3.1195287E13,6.0446967E13,2.0213022E12,3.189181E12,2.1914735E12,6.480233E12,5.745326E11,4.706701E11,3.2816654E12,1.9019004E13,8.4006876E12,2.5289304E13,2.8332557E13,3.602444E13,1.9307891E13,4.0644064E12,3.8783823E13,1.3170198E12,0E0,0E0,0E0,0E0,0E0,0E0,0E0,0E0,0E0,0E0,0E0,0E0,0E0,0E0,0E0,0E0,0E0,0E0,0E0,0E0,0E0,0E0,0E0,0E0,0E0,0E0,0E0,0E0,0E0,0E0,0E0,0E0],"parents":[2147483647,0,0,1,1,2,2,3,3,4,4,5,5,6,6,7,7,8,8,9,9,10,10,11,11,12,12,13,13,14,14,15,15,16,16,17,17,18,18,19,19,20,20,21,21,22,22,23,23,24,24,25,25,26,26,27,27,28,28,29,29,30,30],"right_children":[2,4,6,8,10,12,14,16,18,20,22,24,26,28,30,32,34,36,38,40,42,44,46,48,50,52,54,56,58,60,62,-1,-1,-1,-1,-1,-1,-1,-1,-1,-1,-1,-1,-1,-1,-1,-1,-1,-1,-1,-1,-1,-1,-1,-1,-1,-1,-1,-1,-1,-1,-1,-1],"split_conditions":[2.0115E3,2.966E3,2.843E3,2.0065E3,2.0055E3,1.5905E3,1.5E0,2.0015E3,1.5875E3,2.5E0,3.762E3,2.0155E3,2.0145E3,4.57E2,3.245E2,1.584E3,1.589E3,2.0085E3,8.5E1,2.0005E3,3.255E2,2.0085E3,2.5E0,2.5E0,2.5E0,8.7E1,1.9765E3,1.71E2,3.0955E3,2E0,3.2435E3,3.713576E3,5.2842583E3,6.269435E3,8.02198E3,7.512086E3,9.121862E3,1.6026269E4,1.1333233E4,9.256456E3,1.44022295E4,1.4964628E4,2.4724975E4,2.2724734E4,3.472345E4,1.7079146E4,1.2674998E5,1.1476499E4,1.4580351E4,1.4661187E4,1.9605844E4,2.5196617E4,1.538812E4,2.2980318E4,3.4457785E4,3.981069E4,8.446235E4,5.024123E4,1.5089038E4,3.0096872E5,4.8166652E4,1.7567855E5,9.4667414E4],"split_indices":[3,8,8,3,3,8,6,3,8,6,8,3,3,1,1,8,8,3,1,3,1,3,6,6,6,1,8,1,8,22,8,0,0,0,0,0,0,0,0,0,0,0,0,0,0,0,0,0,0,0,0,0,0,0,0,0,0,0,0,0,0,0,0],"split_type":[0,0,0,0,0,0,0,0,0,0,0,0,0,0,0,0,0,0,0,0,0,0,0,0,0,0,0,0,0,0,0,0,0,0,0,0,0,0,0,0,0,0,0,0,0,0,0,0,0,0,0,0,0,0,0,0,0,0,0,0,0,0,0],"sum_hessian":[7.4869E4,3.6304E4,3.8565E4,3.5719E4,5.85E2,3.8311E4,2.54E2,1.8901E4,1.6818E4,3.04E2,2.81E2,2.5133E4,1.3178E4,1.93E2,6.1E1,8.43E3,1.0471E4,1.0035E4,6.783E3,2.4E2,6.4E1,2.49E2,3.2E1,1.3528E4,1.1605E4,5.724E3,7.454E3,1.51E2,4.2E1,4.9E1,1.2E1,3.559E3,4.871E3,4.994E3,5.477E3,3.1E3,6.935E3,8.47E2,5.936E3,1.07E2,1.33E2,3.5E1,2.9E1,1.24E2,1.25E2,5E0,2.7E1,1.0772E4,2.756E3,7.684E3,3.921E3,8.71E2,4.853E3,6.688E3,7.66E2,3.4E1,1.17E2,1.1E1,3.1E1,4.7E1,2E0,6E0,6E0],"tree_param":{"num_deleted":"0","num_feature":"25","num_nodes":"63","size_leaf_vector":"0"}},{"base_weights":[2.425944E5,1.8204611E5,3.7805378E5,1.7405356E5,2.3131798E5,5.330586E5,3.4101138E5,1.809397E5,1.3977602E5,2.4665378E5,1.8421383E5,4.6669095E6,5.273702E5,4.7335344E5,3.1903088E5,1.635244E5,2.050832E5,1.5608061E5,1.2098564E5,2.2237578E5,2.7919006E5,2.1454147E5,1.6175439E5,4.0175716E5,6.3374006E5,4.7023497E5,2.424116E6,3.3898175E5,2.4843469E5,1.8563395E5,1.5777708E5,2.114875E5,1.622857E5,1.7672702E5,1.5262712E5,1.3219998E5,1.00814375E5,2.5055803E5,2.149361E5,2.8501544E5,2.2194922E5,2.4333347E5,2.092375E5,1.7032173E5,1.2868523E5,6.109322E5,3.8111788E5,7.185512E5,3.887869E5,5.02219E5,3.692162E5,1.8748255E5,3.1071662E6,2.992695E5,3.781782E5,2.7528047E5,2.0759753E5],"categories":[],"categories_nodes":[],"categories_segments":[],"categories_sizes":[],"default_left":[1,1,1,1,1,1,1,1,1,1,1,0,1,1,1,1,1,1,1,1,1,1,1,1,1,1,1,1,1,0,0,0,0,0,0,0,0,0,0,0,0,0,0,0,0,0,0,0,0,0,0,0,0,0,0,0,0],"id":1,"left_children":[1,3,5,7,9,11,13,15,17,19,21,-1,23,25,27,29,31,33,35,37,39,41,43,45,47,49,51,53,55,-1,-1,-1,-1,-1,-1,-1,-1,-1,-1,-1,-1,-1,-1,-1,-1,-1,-1,-1,-1,-1,-1,-1,-1,-1,-1,-1,-1],"loss_changes":[6.1400235E14,2.0336804E13,1.3260765E14,1.0484686E13,5.169396E12,1.0239242E14,5.415605E13,1.5554761E13,2.264488E12,4.237455E12,1.1756844E12,0E0,5.925726E13,1.5023661E13,2.246939E13,2.7081782E12,4.2228253E12,2.5730377E11,7.7093405E11,6.00725E11,7.1100164E11,6.4076382E10,2.684816E11,8.5958737E12,4.9787798E13,8.3896146E12,5.5283926E12,1.9315944E13,3.8150047E12,0E0,0E0,0E0,0E0,0E0,0E0,0E0,0E0,0E0,0E0,0E0,0E0,0E0,0E0,0E0,0E0,0E0,0E0,0E0,0E0,0E0,0E0,0E0,0E0,0E0,0E0,0E0,0E0],"parents":[2147483647,0,0,1,1,2,2,3,3,4,4,5,5,6,6,7,7,8,8,9,9,10,10,12,12,13,13,14,14,15,15,16,16,17,17,18,18,19,19,20,20,21,21,22,22,23,23,24,24,25,25,26,26,27,27,28,28],"right_children":[2,4,6,8,10,12,14,16,18,20,22,-1,24,26,28,30,32,34,36,38,40,42,44,46,48,50,52,54,56,-1,-1,-1,-1,-1,-1,-1,-1,-1,-1,-1,-1,-1,-1,-1,-1,-1,-1,-1,-1,-1,-1,-1,-1,-1,-1,-1,-1],"split_conditions":[1.5E0,6.25E1,3.5E0,2.5E0,1.5E0,1.5E0,6E0,5E-1,2.5E0,5E-1,2.5E0,2.3334548E5,5E-1,4.5E0,1.5E0,5.5E0,1.5E0,5.5E0,2.5E0,5.5E0,1.5E0,5.5E0,2.5E0,7.5E0,5E1,1.5E0,5E-1,5E-1,1.5E0,9.281698E3,7.888854E3,1.0574375E4,8.114285E3,8.836351E3,7.6313564E3,6.6099995E3,5.0407188E3,1.2527901E4,1.0746805E4,1.4250772E4,1.1097461E4,1.2166674E4,1.0461875E4,8.516087E3,6.434261E3,3.054661E4,1.9055895E4,3.592756E4,1.9439346E4,2.5110951E4,1.846081E4,9.374128E3,1.5535831E5,1.4963476E4,1.890891E4,1.3764023E4,1.0379877E4],"split_indices":[5,0,7,20,21,0,0,20,13,21,19,0,16,0,19,7,21,7,16,7,19,7,16,0,0,21,11,19,18,0,0,0,0,0,0,0,0,0,0,0,0,0,0,0,0,0,0,0,0,0,0,0,0,0,0,0,0],"split_type":[0,0,0,0,0,0,0,0,0,0,0,0,0,0,0,0,0,0,0,0,0,0,0,0,0,0,0,0,0,0,0,0,0,0,0,0,0,0,0,0,0,0,0,0,0,0,0,0,0,0,0,0,0,0,0,0,0],"sum_hessian":[7.4869E4,5.1743E4,2.3126E4,4.4525E4,7.218E3,4.458E3,1.8668E4,3.7073E4,7.452E3,5.442E3,1.776E3,5E0,4.453E3,2.656E3,1.6012E4,2.1542E4,1.5531E4,3.986E3,3.466E3,3.121E3,2.321E3,7.52E2,1.024E3,2.044E3,2.409E3,2.653E3,3E0,1.2481E4,3.531E3,4.438E3,1.7104E4,1.3506E4,2.025E3,5.64E2,3.422E3,2.224E3,1.242E3,6.45E2,2.476E3,2.103E3,2.18E2,1.1E2,6.42E2,8.1E2,2.14E2,1.81E2,1.863E3,1.788E3,6.21E2,2.012E3,6.41E2,1E0,2E0,6.204E3,6.277E3,2.127E3,1.404E3],"tree_param":{"num_deleted":"0","num_feature":"25","num_nodes":"57","size_leaf_vector":"0"}},{"base_weights":[2.3047477E5,4.326976E5,2.193259E5,4.2120634E5,3.38928E6,1.9646728E5,2.6045575E5,4.1561916E5,2.7886885E6,4.2382265E6,1.4094895E6,2.7629744E5,1.8600589E5,1.7781158E5,3.0801928E5,6.025044E5,3.8786903E5,1.4096005E6,5.076998E6,4.4932635E6,9.714456E5,1.9833656E5,3.3542247E5,1.771853E5,2.3626214E5,2.3416658E5,1.6116072E5,2.7208072E5,4.7195472E5,6.140656E5,2.1367512E5,2.999386E5,4.4149653E5,2.211398E6,2.554029E5,2.2451538E5,1.6240306E5,2.635987E5,3.5265334E5,1.8562595E5,1.464496E5,2.5361828E5,1.8901608E5,2.4278075E5,2.0873517E5,2.5878127E5,1.494791E5,3.5903894E5,2.4917488E5,9.5473675E5,3.5786597E5],"categories":[],"categories_nodes":[],"categories_segments":[],"categories_sizes":[],"default_left":[1,1,1,1,1,1,1,1,1,1,0,1,1,1,1,1,1,1,0,0,0,1,1,1,1,1,1,1,1,0,0,0,0,0,0,0,0,0,0,0,0,0,0,0,0,0,0,0,0,0,0],"id":2,"left_children":[1,3,5,7,9,11,13,15,17,19,-1,21,23,25,27,29,31,33,-1,-1,-1,35,37,39,41,43,45,47,49,-1,-1,-1,-1,-1,-1,-1,-1,-1,-1,-1,-1,-1,-1,-1,-1,-1,-1,-1,-1,-1,-1],"loss_changes":[1.6870336E14,1.3144808E14,6.666353E13,5.0388758E13,1.9237293E13,3.8043344E13,9.95764E13,1.9934956E13,2.1245484E13,3.9665533E12,0E0,2.4285154E13,1.7837268E13,8.652413E12,9.46439E13,2.1209589E12,1.5848362E13,5.9132315E12,0E0,0E0,0E0,2.1092735E12,3.6235096E12,8.875147E12,4.887673E12,4.115619E11,8.11722E12,2.6195006E13,1.5889466E14,0E0,0E0,0E0,0E0,0E0,0E0,0E0,0E0,0E0,0E0,0E0,0E0,0E0,0E0,0E0,0E0,0E0,0E0,0E0,0E0,0E0,0E0],"parents":[2147483647,0,0,1,1,2,2,3,3,4,4,5,5,6,6,7,7,8,8,9,9,11,11,12,12,13,13,14,14,15,15,16,16,17,17,21,21,22,22,23,23,24,24,25,25,26,26,27,27,28,28],"right_children":[2,4,6,8,10,12,14,16,18,20,-1,22,24,26,28,30,32,34,-1,-1,-1,36,38,40,42,44,46,48,50,-1,-1,-1,-1,-1,-1,-1,-1,-1,-1,-1,-1,-1,-1,-1,-1,-1,-1,-1,-1,-1,-1],"split_conditions":[7.5E0,3.9085E3,1.9285E3,4.5E0,4.1715E3,3.5E0,2.3E1,4.5E0,-5E-1,9.5E0,7.047448E4,1.5E0,6.25E1,2.132E3,3.0725E3,1.5E0,3.3775E3,1E1,2.538499E5,2.2466317E5,4.857228E4,4.75E1,1.8E1,2.5E0,1.5E0,2.0295E3,1.95E1,1.9885E3,3.5E0,3.0703281E4,1.0683757E4,1.499693E4,2.2074826E4,1.105699E5,1.27701455E4,1.1225769E4,8.1201533E3,1.3179935E4,1.7632668E4,9.281298E3,7.32248E3,1.2680914E4,9.450804E3,1.2139038E4,1.0436759E4,1.2939063E4,7.4739546E3,1.7951947E4,1.2458744E4,4.773684E4,1.7893299E4],"split_indices":[0,2,2,0,2,7,0,7,10,7,0,7,0,2,2,16,2,7,0,0,0,0,0,19,19,2,0,2,7,0,0,0,0,0,0,0,0,0,0,0,0,0,0,0,0,0,0,0,0,0,0],"split_type":[0,0,0,0,0,0,0,0,0,0,0,0,0,0,0,0,0,0,0,0,0,0,0,0,0,0,0,0,0,0,0,0,0,0,0,0,0,0,0,0,0,0,0,0,0,0,0,0,0,0,0],"sum_hessian":[7.4869E4,3.91E3,7.0959E4,3.896E3,1.4E1,4.5614E4,2.5345E4,3.888E3,8E0,9E0,5E0,5.282E3,4.0332E4,9.26E3,1.6085E4,5E2,3.388E3,6E0,2E0,8E0,1E0,2.28E3,3.002E3,3.4314E4,6.018E3,2.109E3,7.151E3,1.3195E4,2.89E3,4.85E2,1.5E1,1.286E3,2.102E3,3E0,3E0,1.316E3,9.64E2,5.84E2,2.418E3,2.6917E4,7.397E3,4.398E3,1.62E3,1.569E3,5.4E2,7.62E2,6.389E3,2.748E3,1.0447E4,5.51E2,2.339E3],"tree_param":{"num_deleted":"0","num_feature":"25","num_nodes":"51","size_leaf_vector":"0"}},{"base_weights":[2.1896475E5,2.1243333E5,2.5400328E6,1.7008703E5,3.262927E5,1.2288822E6,3.40438E6,1.1799981E5,1.9530284E5,2.8340125E5,4.5906847E5,2.9845778E5,1.7053796E6,4.1304135E6,8.3349575E5,9.34476E4,1.2999834E5,2.136723E5,1.6514839E5,4.7977862E5,2.781919E5,4.2425828E5,8.4991094E5,6.2703425E5,1.5047386E5,1.8918041E6,1.3014991E5,3.288331E6,5.4298375E6,5.811613E5,2.2652952E6,5.432379E4,9.829367E4,1.4338445E5,1.0090657E5,1.98236E5,2.6100427E5,1.2986377E5,2.248846E5,5.771973E5,2.8204453E5,2.5736494E5,3.3652038E5,4.6881303E5,2.942582E5,5.329716E5,1.1474334E6,6.7311206E5,1.2920575E5,1.0871721E5,2.2442138E5,1.6354698E6,4.4307815E6,5.5979652E4,2.1038369E5,3.4537318E6,1.4953626E6,5.5633045E6,3.1252006E5,4.0516866E5,1.0009745E6,1.764104E5,2.9027868E6],"categories":[],"categories_nodes":[],"categories_segments":[],"categories_sizes":[],"default_left":[1,1,1,1,1,1,1,1,1,1,1,1,1,1,1,1,1,1,1,1,1,1,1,1,1,1,1,1,1,1,1,0,0,0,0,0,0,0,0,0,0,0,0,0,0,0,0,0,0,0,0,0,0,0,0,0,0,0,0,0,0,0,0],"id":3,"left_children":[1,3,5,7,9,11,13,15,17,19,21,23,25,27,29,31,33,35,37,39,41,43,45,47,49,51,53,55,57,59,61,-1,-1,-1,-1,-1,-1,-1,-1,-1,-1,-1,-1,-1,-1,-1,-1,-1,-1,-1,-1,-1,-1,-1,-1,-1,-1,-1,-1,-1,-1,-1,-1],"loss_changes":[1.1344818E15,3.5992416E14,2.3380715E14,7.145725E13,1.15129685E14,3.7175308E13,2.3174234E14,5.218318E12,2.0276406E13,1.5518522E13,6.6849622E13,1.3643686E12,1.6198838E13,8.937881E13,9.160976E12,1.1003882E12,4.629035E12,1.6594948E13,2.9239298E13,7.426829E12,1.8022488E13,2.6146687E13,3.738997E13,1.1947999E11,4.353314E10,2.5294958E13,2.987951E10,1.322199E13,2.3532059E13,1.5154214E12,4.814503E12,0E0,0E0,0E0,0E0,0E0,0E0,0E0,0E0,0E0,0E0,0E0,0E0,0E0,0E0,0E0,0E0,0E0,0E0,0E0,0E0,0E0,0E0,0E0,0E0,0E0,0E0,0E0,0E0,0E0,0E0,0E0,0E0],"parents":[2147483647,0,0,1,1,2,2,3,3,4,4,5,5,6,6,7,7,8,8,9,9,10,10,11,11,12,12,13,13,14,14,15,15,16,16,17,17,18,18,19,19,20,20,21,21,22,22,23,23,24,24,25,25,26,26,27,27,28,28,29,29,30,30],"right_children":[2,4,6,8,10,12,14,16,18,20,22,24,26,28,30,32,34,36,38,40,42,44,46,48,50,52,54,56,58,60,62,-1,-1,-1,-1,-1,-1,-1,-1,-1,-1,-1,-1,-1,-1,-1,-1,-1,-1,-1,-1,-1,-1,-1,-1,-1,-1,-1,-1,-1,-1,-1,-1],"split_conditions":[2.99E2,1.155E2,2.5E0,8.95E1,1.555E2,3.2E1,1.6E1,7.45E1,1.5E0,1.165E2,2.34E2,3.14E2,4.695E2,4.35E2,4.71E2,6.45E1,1.05E1,5.35E1,2.5E0,1.5E0,2.5E0,4.45E1,3.55E1,1.5E0,1.5E0,4.06E2,5.75E1,6.5E0,1.5E0,5E-1,5E-1,2.7161895E3,4.9146836E3,7.1692227E3,5.0453286E3,9.9118E3,1.3050214E4,6.493189E3,1.12442295E4,2.8859865E4,1.4102227E4,1.2868247E4,1.682602E4,2.3440652E4,1.4712909E4,2.6648582E4,5.7371668E4,3.3655605E4,6.4602876E3,5.435861E3,1.1221069E4,8.177349E4,2.2153908E5,2.7989827E3,1.0519185E4,1.726866E5,7.476813E4,2.7816522E5,1.5626003E4,2.0258434E4,5.0048727E4,8.8205205E3,1.4513934E5],"split_indices":[9,9,6,9,9,0,7,9,6,9,9,9,9,9,9,9,7,0,6,6,6,0,0,6,6,9,0,7,14,12,13,0,0,0,0,0,0,0,0,0,0,0,0,0,0,0,0,0,0,0,0,0,0,0,0,0,0,0,0,0,0,0,0],"split_type":[0,0,0,0,0,0,0,0,0,0,0,0,0,0,0,0,0,0,0,0,0,0,0,0,0,0,0,0,0,0,0,0,0,0,0,0,0,0,0,0,0,0,0,0,0,0,0,0,0,0,0,0,0,0,0,0,0,0,0,0,0,0,0],"sum_hessian":[7.4869E4,7.466E4,2.09E2,5.4422E4,2.0238E4,8.4E1,1.25E2,1.7754E4,3.6668E4,1.5299E4,4.939E3,2.9E1,5.5E1,9.7E1,2.8E1,5.831E3,1.1923E4,2.2783E4,1.3885E4,3.93E2,1.4906E4,4.537E3,4.02E2,8E0,2.1E1,4.9E1,6E0,6.1E1,3.6E1,2.5E1,3E0,6.44E2,5.187E3,8.163E3,3.76E3,1.7184E4,5.599E3,8.731E3,5.154E3,2.62E2,1.31E2,1.0988E4,3.918E3,3.377E3,1.16E3,1.96E2,2.06E2,7E0,1E0,1.5E1,6E0,4.6E1,3E0,4E0,2E0,5.5E1,6E0,3.5E1,1E0,1.9E1,6E0,1E0,2E0],"tree_param":{"num_deleted":"0","num_feature":"25","num_nodes":"63","size_leaf_vector":"0"}},{"base_weights":[2.0803514E5,1.373616E5,3.0273716E5,8.839666E4,1.7726105E5,4.1927684E5,2.8128953E5,6.0990793E4,1.105711E5,1.5242572E5,1.9933905E5,6.854555E5,3.7099956E5,4.030531E5,2.69357E5,4.7215227E4,7.451137E4,1.0413183E5,1.2488287E5,2.4732497E5,1.4950095E5,3.1579778E5,1.8997494E5,5.749133E5,4.7578255E6,3.677215E5,1.2632489E6,2.9485697E5,5.369181E5,3.0035294E5,2.3389266E5,6.517604E4,3.8511727E4,8.389021E4,6.33288E4,9.0682914E4,1.1225956E5,4.915994E5,1.2204364E5,7.300732E5,2.0377897E5,1.3798527E5,1.6105948E5,2.2889442E6,3.0479072E5,3.8796106E5,1.8774467E5,1.9765898E6,5.213287E5,4.9111065E6,9.2274094E5,3.2425312E5,4.214084E5,2.7982752E6,4.506688E5,4.0391656E5,1.8665692E5,7.2322125E5,4.769723E5,2.5672556E5,3.1273125E5,2.5417369E5,2.0625305E5],"categories":[],"categories_nodes":[],"categories_segments":[],"categories_sizes":[],"default_left":[1,1,1,1,1,1,1,1,1,1,1,1,1,1,1,1,1,1,1,1,1,1,1,1,1,1,1,1,1,1,1,0,0,0,0,0,0,0,0,0,0,0,0,0,0,0,0,0,0,0,0,0,0,0,0,0,0,0,0,0,0,0,0],"id":4,"left_children":[1,3,5,7,9,11,13,15,17,19,21,23,25,27,29,31,33,35,37,39,41,43,45,47,49,51,53,55,57,59,61,-1,-1,-1,-1,-1,-1,-1,-1,-1,-1,-1,-1,-1,-1,-1,-1,-1,-1,-1,-1,-1,-1,-1,-1,-1,-1,-1,-1,-1,-1,-1,-1],"loss_changes":[5.0105786E14,8.375005E13,7.985364E13,1.1693485E13,1.2922953E13,6.3624974E13,3.915735E13,1.6006848E12,9.676427E11,3.0500308E12,1.3574949E13,3.402932E14,1.1849144E13,3.474736E13,2.6988903E13,6.6482864E11,4.5039065E11,7.926899E11,3.372816E12,6.8094253E12,1.4142354E12,1.9478876E13,5.038265E12,5.477501E13,7.2252423E12,9.655422E12,1.7448881E13,1.5677939E13,1.1671909E13,7.0114E12,6.3855426E12,0E0,0E0,0E0,0E0,0E0,0E0,0E0,0E0,0E0,0E0,0E0,0E0,0E0,0E0,0E0,0E0,0E0,0E0,0E0,0E0,0E0,0E0,0E0,0E0,0E0,0E0,0E0,0E0,0E0,0E0,0E0,0E0],"parents":[2147483647,0,0,1,1,2,2,3,3,4,4,5,5,6,6,7,7,8,8,9,9,10,10,11,11,12,12,13,13,14,14,15,15,16,16,17,17,18,18,19,19,20,20,21,21,22,22,23,23,24,24,25,25,26,26,27,27,28,28,29,29,30,30],"right_children":[2,4,6,8,10,12,14,16,18,20,22,24,26,28,30,32,34,36,38,40,42,44,46,48,50,52,54,56,58,60,62,-1,-1,-1,-1,-1,-1,-1,-1,-1,-1,-1,-1,-1,-1,-1,-1,-1,-1,-1,-1,-1,-1,-1,-1,-1,-1,-1,-1,-1,-1,-1,-1],"split_conditions":[2.0125E3,2.0065E3,4.1525E4,2.0015E3,2.0105E3,1.755E2,8.65E1,1.9985E3,2.0055E3,8.38995E4,8.45E1,1.705E2,4E0,3.4E1,1.26825E5,2.225E2,2.895E2,1.5E0,2.111E4,5.05E1,2.0085E3,3.11655E4,4.64165E4,2.5E0,1.745E2,2.67E2,5E2,2.6E1,5.3E1,2.0145E3,1.774225E5,3.258802E3,1.9255863E3,4.1945107E3,3.1664402E3,4.534146E3,5.612978E3,2.457997E4,6.102182E3,3.650366E4,1.0188948E4,6.899263E3,8.052974E3,1.1444721E5,1.5239536E4,1.9398053E4,9.387233E3,9.882949E4,2.6066436E4,2.4555533E5,4.6137047E4,1.6212656E4,2.107042E4,1.3991377E5,2.2533441E4,2.0195828E4,9.332847E3,3.6161062E4,2.3848615E4,1.2836278E4,1.56365625E4,1.2708685E4,1.0312652E4],"split_indices":[3,3,4,3,3,1,1,3,3,4,1,1,6,1,4,1,1,6,4,1,3,4,4,4,1,1,4,1,1,3,4,0,0,0,0,0,0,0,0,0,0,0,0,0,0,0,0,0,0,0,0,0,0,0,0,0,0,0,0,0,0,0,0],"split_type":[0,0,0,0,0,0,0,0,0,0,0,0,0,0,0,0,0,0,0,0,0,0,0,0,0,0,0,0,0,0,0,0,0,0,0,0,0,0,0,0,0,0,0,0,0,0,0,0,0,0,0,0,0,0,0,0,0,0,0,0,0,0,0],"sum_hessian":[7.4869E4,4.2875E4,3.1994E4,1.9252E4,2.3623E4,4.97E3,2.7024E4,8.612E3,1.064E4,1.1121E4,1.2502E4,7.61E2,4.209E3,2.409E3,2.4615E4,4.268E3,4.344E3,7.344E3,3.296E3,3.3E2,1.0791E4,9.28E2,1.1574E4,7.42E2,1.9E1,4.195E3,1.4E1,1.334E3,1.075E3,1.3131E4,1.1484E4,1.391E3,2.877E3,2.359E3,1.985E3,2.771E3,4.573E3,2.4E1,3.272E3,2.6E1,3.04E2,5.412E3,5.379E3,4E0,9.24E2,1.27E2,1.1447E4,2.6E1,7.16E2,1.8E1,1E0,2.322E3,1.873E3,4E0,1E1,6.63E2,6.71E2,2.59E2,8.16E2,2.907E3,1.0224E4,6.619E3,4.865E3],"tree_param":{"num_deleted":"0","num_feature":"25","num_nodes":"63","size_leaf_vector":"0"}},{"base_weights":[1.9764716E5,2.8631612E5,1.4761203E5,5.898625E5,2.7175956E5,2.790981E5,1.3981936E5,5.643467E5,3.1433172E6,2.1673388E5,3.1563606E5,3.6985406E5,1.8921297E5,1.7801073E5,1.1455595E5,8.21507E5,5.203756E5,3.8703868E6,1.7711835E6,2.6979794E5,1.9641584E5,5.767764E5,2.781921E5,4.2582484E5,3.0948488E5,1.23594E5,2.8495628E5,1.4605714E5,2.0239706E5,1.3006131E5,9.293742E4,2.5224285E6,7.0455106E5,2.4229603E5,5.31457E5,1.59597E6,4.4609595E6,2.5231019E5,3.34151E5,1.7046452E5,2.2225084E5,2.9255588E5,8.097308E5,9.987034E5,2.707992E5,1.7810405E5,4.35285E5,3.497799E5,2.8093234E5,1.600143E5,1.0349663E5,3.5739253E5,2.1201061E5,1.2936408E5,1.645318E5,3.2906834E5,1.9031205E5,1.08080555E5,1.4760369E5,8.686888E4,1.2391891E5],"categories":[],"categories_nodes":[],"categories_segments":[],"categories_sizes":[],"default_left":[1,1,1,1,1,1,1,1,1,1,1,1,1,1,1,1,1,1,0,1,1,1,1,1,1,1,1,1,1,1,1,0,0,0,0,0,0,0,0,0,0,0,0,0,0,0,0,0,0,0,0,0,0,0,0,0,0,0,0,0,0],"id":5,"left_children":[1,3,5,7,9,11,13,15,17,19,21,23,25,27,29,31,33,35,-1,37,39,41,43,45,47,49,51,53,55,57,59,-1,-1,-1,-1,-1,-1,-1,-1,-1,-1,-1,-1,-1,-1,-1,-1,-1,-1,-1,-1,-1,-1,-1,-1,-1,-1,-1,-1,-1,-1],"loss_changes":[3.321231E14,1.1917259E14,4.900383E13,7.8690545E13,6.215623E13,2.1767934E13,4.3578953E13,1.3413049E13,5.1164805E12,1.2277902E13,1.4002855E14,4.3655323E12,8.4274137E12,1.3988037E13,9.105431E12,3.3433938E13,3.1006644E12,2.282901E12,0E0,3.476407E12,5.5094364E12,1.187433E14,6.6531526E13,1.5347881E12,6.426764E11,5.6973224E11,2.8145248E12,2.38114E12,1.5551775E13,6.0907E12,2.1258075E12,0E0,0E0,0E0,0E0,0E0,0E0,0E0,0E0,0E0,0E0,0E0,0E0,0E0,0E0,0E0,0E0,0E0,0E0,0E0,0E0,0E0,0E0,0E0,0E0,0E0,0E0,0E0,0E0,0E0,0E0],"parents":[2147483647,0,0,1,1,2,2,3,3,4,4,5,5,6,6,7,7,8,8,9,9,10,10,11,11,12,12,13,13,14,14,15,15,16,16,17,17,19,19,20,20,21,21,22,22,23,23,24,24,25,25,26,26,27,27,28,28,29,29,30,30],"right_children":[2,4,6,8,10,12,14,16,18,20,22,24,26,28,30,32,34,36,-1,38,40,42,44,46,48,50,52,54,56,58,60,-1,-1,-1,-1,-1,-1,-1,-1,-1,-1,-1,-1,-1,-1,-1,-1,-1,-1,-1,-1,-1,-1,-1,-1,-1,-1,-1,-1,-1,-1],"split_conditions":[1.358175E5,7.5E0,7.5E0,4.5E0,2.95E1,1.5E0,1.97572E5,3.2676E4,6.1278E4,4.89375E4,4.45E1,2.408165E5,2.5E0,2.75E1,1.5E0,1.5E0,5E-1,5E-1,8.855918E4,2.35E1,2.05E1,3.35E1,5.4E1,1E0,2.77325E5,2.48125E5,1.86825E5,2.05E1,4.45E1,2.7E1,2.5E0,1.2612143E5,3.5227555E4,1.2114802E4,2.657285E4,7.97985E4,2.2304798E5,1.261551E4,1.670755E4,8.523226E3,1.1112542E4,1.4627794E4,4.0486543E4,4.9935168E4,1.353996E4,8.905202E3,2.176425E4,1.7488996E4,1.4046617E4,8.000715E3,5.1748315E3,1.7869627E4,1.060053E4,6.468204E3,8.22659E3,1.6453418E4,9.515603E3,5.404028E3,7.3801846E3,4.3434443E3,6.1959453E3],"split_indices":[4,0,0,0,0,6,4,4,4,4,0,4,6,0,6,0,0,14,0,0,0,0,4,0,4,4,4,0,0,0,6,0,0,0,0,0,0,0,0,0,0,0,0,0,0,0,0,0,0,0,0,0,0,0,0,0,0,0,0,0,0],"split_type":[0,0,0,0,0,0,0,0,0,0,0,0,0,0,0,0,0,0,0,0,0,0,0,0,0,0,0,0,0,0,0,0,0,0,0,0,0,0,0,0,0,0,0,0,0,0,0,0,0,0,0,0,0,0,0,0,0,0,0,0,0],"sum_hessian":[7.4869E4,2.7006E4,4.7863E4,1.234E3,2.5772E4,2.676E3,4.5187E4,1.223E3,1.1E1,1.1436E4,1.4336E4,1.33E3,1.346E3,1.7988E4,2.7199E4,1.76E2,1.047E3,6E0,5E0,3.163E3,8.273E3,1.796E3,1.254E4,6.87E2,6.43E2,8E2,5.46E2,7.789E3,1.0199E4,1.5836E4,1.1363E4,1E1,1.66E2,4.1E1,1.006E3,2E0,4E0,2.491E3,6.72E2,4.131E3,4.142E3,8.1E2,9.86E2,1.26E2,1.2414E4,2.6E1,6.61E2,2.62E2,3.81E2,2.82E2,5.18E2,2.72E2,2.74E2,4.096E3,3.693E3,8.86E2,9.313E3,7.032E3,8.804E3,9.505E3,1.858E3],"tree_param":{"num_deleted":"0","num_feature":"25","num_nodes":"61","size_leaf_vector":"0"}},{"base_weights":[1.8777717E5,1.8168466E5,2.3529485E6,1.3569939E5,2.853711E5,3.101077E6,1.2596048E6,1.0335764E5,1.620936E5,2.501456E5,4.3900522E5,1.0252741E5,3.392064E6,1.7346479E6,6.5806294E5,1.10754016E5,5.74392E4,1.9591645E5,1.5177272E5,2.04705E5,2.9502222E5,4.0479725E5,8.012721E5,6.6616016E4,1.8805625E5,2.53179E6,4.898769E6,8.6518766E4,2.0621108E6,4.86554E5,2.0800048E6,9.6381336E4,1.3700338E5,4.8335832E4,1.3237089E5,1.7306775E5,2.305129E5,1.8768348E5,1.4140056E5,1.5812595E5,2.30412E5,3.3073862E5,1.757983E5,4.4697525E5,2.2795142E5,4.88794E5,1.0820746E6,1.7084771E4,7.686323E4,3.255458E6,8.885041E5,5.010402E6,2.7253947E5,1.5875919E6,3.7617372E6,1.7237842E6,4.043036E5,1.2156569E5,2.6922958E6],"categories":[],"categories_nodes":[],"categories_segments":[],"categories_sizes":[],"default_left":[1,1,1,1,1,1,1,1,1,1,1,1,1,1,1,1,1,1,1,1,1,1,1,1,0,1,1,0,1,1,1,0,0,0,0,0,0,0,0,0,0,0,0,0,0,0,0,0,0,0,0,0,0,0,0,0,0,0,0],"id":6,"left_children":[1,3,5,7,9,11,13,15,17,19,21,23,25,27,29,31,33,35,37,39,41,43,45,47,-1,49,51,-1,53,55,57,-1,-1,-1,-1,-1,-1,-1,-1,-1,-1,-1,-1,-1,-1,-1,-1,-1,-1,-1,-1,-1,-1,-1,-1,-1,-1,-1,-1],"loss_changes":[9.87209E14,3.5594837E14,1.6786584E14,4.4136627E13,1.2402698E14,1.0784703E14,2.371946E13,7.8886805E12,9.911778E12,3.799543E13,5.2678042E13,2.4329961E10,1.3406566E14,2.5727257E13,8.742992E12,7.539832E12,2.1948384E12,5.2207844E12,8.102657E12,1.1070714E13,3.9914003E13,2.9062769E13,3.1761115E13,3.7623808E9,0E0,8.510783E13,1.929212E13,0E0,2.6288086E13,3.0682865E12,4.46925E12,0E0,0E0,0E0,0E0,0E0,0E0,0E0,0E0,0E0,0E0,0E0,0E0,0E0,0E0,0E0,0E0,0E0,0E0,0E0,0E0,0E0,0E0,0E0,0E0,0E0,0E0,0E0,0E0],"parents":[2147483647,0,0,1,1,2,2,3,3,4,4,5,5,6,6,7,7,8,8,9,9,10,10,11,11,12,12,13,13,14,14,15,15,16,16,17,17,18,18,19,19,20,20,21,21,22,22,23,23,25,25,26,26,28,28,29,29,30,30],"right_children":[2,4,6,8,10,12,14,16,18,20,22,24,26,28,30,32,34,36,38,40,42,44,46,48,-1,50,52,-1,54,56,58,-1,-1,-1,-1,-1,-1,-1,-1,-1,-1,-1,-1,-1,-1,-1,-1,-1,-1,-1,-1,-1,-1,-1,-1,-1,-1,-1,-1],"split_conditions":[2.99E2,1.5E0,3.5E0,9.25E1,1.555E2,1.5E0,1.6E1,1.5625E3,5.5E0,1.145E2,2.355E2,5.6E1,4.085E2,1.5E0,5.9955E3,8.35E1,6.35E1,2.5E0,1.3955E3,2.5E0,1.6415E3,2.311E3,3.55E1,1.3055E3,9.4028125E3,3.812E3,1.5E0,4.3259385E3,4.11E2,2.2475E3,5E-1,4.819067E3,6.850169E3,2.4167917E3,6.6185444E3,8.653388E3,1.15256455E4,9.384175E3,7.0700283E3,7.906298E3,1.1520601E4,1.6536932E4,8.789915E3,2.2348764E4,1.1397571E4,2.4439701E4,5.410373E4,8.542386E2,3.8431614E3,1.627729E5,4.4425207E4,2.5052011E5,1.3626974E4,7.937959E4,1.8808686E5,8.618921E4,2.021518E4,6.0782847E3,1.346148E5],"split_indices":[9,5,7,9,9,7,7,8,7,9,9,0,9,5,8,9,0,7,8,5,8,8,0,9,0,8,14,0,9,8,13,0,0,0,0,0,0,0,0,0,0,0,0,0,0,0,0,0,0,0,0,0,0,0,0,0,0,0,0],"split_type":[0,0,0,0,0,0,0,0,0,0,0,0,0,0,0,0,0,0,0,0,0,0,0,0,0,0,0,0,0,0,0,0,0,0,0,0,0,0,0,0,0,0,0,0,0,0,0,0,0,0,0,0,0,0,0,0,0,0,0],"sum_hessian":[7.4869E4,7.466E4,2.09E2,5.1723E4,2.2937E4,1.23E2,8.6E1,2.3245E4,2.8478E4,1.8661E4,4.276E3,1.1E1,1.12E2,4.7E1,3.9E1,2.0019E4,3.226E3,6.654E3,2.1824E4,9.275E3,9.386E3,3.909E3,3.67E2,9E0,2E0,7.3E1,3.9E1,8E0,3.9E1,3.6E1,3E0,1.2939E4,7.08E3,2.878E3,3.48E2,4.011E3,2.643E3,4.887E3,1.6937E4,3.301E3,5.974E3,7.221E3,2.165E3,3.155E3,7.54E2,1.75E2,1.92E2,2E0,7E0,5E1,2.3E1,3.8E1,1E0,3.2E1,7E0,1E0,3.5E1,1E0,2E0],"tree_param":{"num_deleted":"0","num_feature":"25","num_nodes":"59","size_leaf_vector":"0"}},{"base_weights":[1.784046E5,1.726033E5,2.2400835E6,1.356749E5,2.7189578E5,1.0851835E6,3.0014042E6,9.0675305E4,1.5745984E5,2.623229E5,7.424308E5,2.2598494E5,1.5260902E6,2.1962212E6,4.6776425E6,9.6971914E4,3.9531895E4,1.4569197E5,1.9298103E5,2.3447625E5,3.561509E5,4.581303E5,1.0094104E6,4.9177397E5,1.0698102E5,1.6943196E6,1.0643853E5,3.0806398E6,9.1780044E5,6.038606E6,3.8787078E6,7.544378E4,1.07448414E5,5.704047E4,2.7045959E4,1.622382E5,1.1011449E5,2.166775E5,1.552594E5,2.763137E5,1.4364555E5,3.9794238E5,1.9136881E5,5.354591E5,1.6873264E5,1.1362755E6,1.2155871E5,5.256272E5,1.1047411E5,7.120289E4,1.734766E5,1.4556069E6,4.0756142E6,3.9941312E4,1.8178772E5,2.0260481E6,3.695665E6,6.9533425E5,3.2073058E6,2.7239255E6,5.191424E6],"categories":[],"categories_nodes":[],"categories_segments":[],"categories_sizes":[],"default_left":[1,1,1,1,1,1,1,1,1,1,1,1,1,1,1,1,1,1,1,1,1,1,1,1,1,1,1,1,1,0,1,0,0,0,0,0,0,0,0,0,0,0,0,0,0,0,0,0,0,0,0,0,0,0,0,0,0,0,0,0,0],"id":7,"left_children":[1,3,5,7,9,11,13,15,17,19,21,23,25,27,29,31,33,35,37,39,41,43,45,47,49,51,53,55,57,-1,59,-1,-1,-1,-1,-1,-1,-1,-1,-1,-1,-1,-1,-1,-1,-1,-1,-1,-1,-1,-1,-1,-1,-1,-1,-1,-1,-1,-1,-1,-1],"loss_changes":[8.9509E14,2.7372363E14,1.8138526E14,5.333732E13,9.096942E13,3.1855378E13,1.5978634E14,5.7138165E12,1.5299881E13,5.174657E13,3.0126243E13,8.962875E11,1.3193989E13,9.553994E13,2.0070852E13,3.5572228E12,4.2431126E11,1.6198872E13,8.1202397E12,5.810225E13,3.1174752E13,4.318275E12,2.3177808E13,5.810592E10,3.998787E10,2.2489774E13,2.7812741E10,2.559106E13,1.6615337E13,0E0,2.8304204E13,0E0,0E0,0E0,0E0,0E0,0E0,0E0,0E0,0E0,0E0,0E0,0E0,0E0,0E0,0E0,0E0,0E0,0E0,0E0,0E0,0E0,0E0,0E0,0E0,0E0,0E0,0E0,0E0,0E0,0E0],"parents":[2147483647,0,0,1,1,2,2,3,3,4,4,5,5,6,6,7,7,8,8,9,9,10,10,11,11,12,12,13,13,14,14,15,15,16,16,17,17,18,18,19,19,20,20,21,21,22,22,23,23,24,24,25,25,26,26,27,27,28,28,30,30],"right_children":[2,4,6,8,10,12,14,16,18,20,22,24,26,28,30,32,34,36,38,40,42,44,46,48,50,52,54,56,58,-1,60,-1,-1,-1,-1,-1,-1,-1,-1,-1,-1,-1,-1,-1,-1,-1,-1,-1,-1,-1,-1,-1,-1,-1,-1,-1,-1,-1,-1,-1,-1],"split_conditions":[2.99E2,1.155E2,2.5E0,8.95E1,2.34E2,3.2E1,4.35E2,1.4985E3,5.35E1,1.555E2,3.55E1,3.14E2,4.695E2,3.812E3,3.942E3,7.45E1,2.35E1,1.5625E3,1.5E0,1.5985E3,2.311E3,3.0595E3,5.15E1,1.5E0,1.5E0,4.06E2,5.75E1,3.28E2,6.081E3,3.019303E5,5.65E2,3.7721892E3,5.372421E3,2.8520234E3,1.352298E3,8.11191E3,5.5057246E3,1.0833875E4,7.76297E3,1.3815685E4,7.1822773E3,1.989712E4,9.56844E3,2.6772957E4,8.436632E3,5.6813777E4,6.0779355E3,2.628136E4,5.5237056E3,3.5601445E3,8.67383E3,7.278034E4,2.0378072E5,1.9970657E3,9.089386E3,1.0130241E5,1.8478325E5,3.4766715E4,1.603653E5,1.3619628E5,2.595712E5],"split_indices":[9,9,6,9,9,0,9,8,0,9,0,9,9,8,8,9,0,8,6,8,8,8,0,6,6,9,0,9,8,0,9,0,0,0,0,0,0,0,0,0,0,0,0,0,0,0,0,0,0,0,0,0,0,0,0,0,0,0,0,0,0],"split_type":[0,0,0,0,0,0,0,0,0,0,0,0,0,0,0,0,0,0,0,0,0,0,0,0,0,0,0,0,0,0,0,0,0,0,0,0,0,0,0,0,0,0,0,0,0,0,0,0,0,0,0,0,0,0,0,0,0,0,0,0,0],"sum_hessian":[7.4869E4,7.466E4,2.09E2,5.4422E4,2.0238E4,8.4E1,1.25E2,1.7754E4,3.6668E4,1.9836E4,4.02E2,2.9E1,5.5E1,8.6E1,3.9E1,1.5807E4,1.947E3,2.7547E4,9.121E3,1.5299E4,4.537E3,1.96E2,2.06E2,8E0,2.1E1,4.9E1,6E0,5E1,3.6E1,1.2E1,2.7E1,5.177E3,1.063E4,8.09E2,1.138E3,1.88E4,8.747E3,5.599E3,3.522E3,1.0473E4,4.826E3,3.618E3,9.19E2,1.54E2,4.2E1,1.8E2,2.6E1,7E0,1E0,1.5E1,6E0,4.6E1,3E0,4E0,2E0,2E1,3E1,3.4E1,2E0,1.6E1,1.1E1],"tree_param":{"num_deleted":"0","num_feature":"25","num_nodes":"61","size_leaf_vector":"0"}},{"base_weights":[1.6950712E5,1.6396217E5,2.1307275E6,1.0396902E5,2.4435844E5,4.1312868E6,1.0199782E6,6.750505E4,1.4121422E5,2.1817952E5,5.1188128E5,2.4722492E6,4.5392925E6,2.0523338E6,6.726698E5,3.9139355E4,8.625331E4,1.3356469E5,3.9263834E5,1.6044388E5,2.6975797E5,4.7322653E5,1.3850785E6,6.146325E4,2.619082E6,2.30707E6,4.7954175E6,2.1885282E6,4.8374244E5,3.03905E5,1.1887338E6,2.5793242E4,5.3444027E4,7.98464E4,1.6758225E5,1.0488655E5,1.5979838E5,3.2722344E5,5.306992E5,1.8597306E5,1.4023356E5,2.2413223E5,3.0443966E5,2.4968667E5,5.2263412E5,1.5163681E6,7.3131756E5,7.6086475E5,2.6922388E6,1.5920859E4,2.6321025E6,4.922598E6,1.0772664E6,2.2494708E6,1.8012616E5,6.4431637E4,3.7240906E5,1.3334046E6,7.436302E4],"categories":[],"categories_nodes":[],"categories_segments":[],"categories_sizes":[],"default_left":[1,1,1,1,1,1,1,1,1,1,1,1,1,1,1,1,1,1,1,1,1,1,1,0,1,1,1,1,0,1,1,0,0,0,0,0,0,0,0,0,0,0,0,0,0,0,0,0,0,0,0,0,0,0,0,0,0,0,0],"id":8,"left_children":[1,3,5,7,9,11,13,15,17,19,21,23,25,27,29,31,33,35,37,39,41,43,45,-1,47,49,51,53,-1,55,57,-1,-1,-1,-1,-1,-1,-1,-1,-1,-1,-1,-1,-1,-1,-1,-1,-1,-1,-1,-1,-1,-1,-1,-1,-1,-1,-1,-1],"loss_changes":[8.13854E14,3.6007664E14,4.6465345E14,5.80591E13,2.2332676E14,3.954497E13,4.7740222E13,1.1487393E13,4.0626867E13,8.650091E13,9.530499E13,5.856725E12,2.266857E13,6.204852E12,1.9430583E13,1.6404625E12,6.764666E12,1.542712E13,5.461831E12,7.0502224E12,2.4218113E13,2.9954914E13,9.190894E12,0E0,1.2662604E11,5.915684E12,1.9286685E13,3.3891318E12,0E0,9.9310895E11,6.8331755E12,0E0,0E0,0E0,0E0,0E0,0E0,0E0,0E0,0E0,0E0,0E0,0E0,0E0,0E0,0E0,0E0,0E0,0E0,0E0,0E0,0E0,0E0,0E0,0E0,0E0,0E0,0E0,0E0],"parents":[2147483647,0,0,1,1,2,2,3,3,4,4,5,5,6,6,7,7,8,8,9,9,10,10,11,11,12,12,13,13,14,14,15,15,16,16,17,17,18,18,19,19,20,20,21,21,22,22,24,24,25,25,26,26,27,27,29,29,30,30],"right_children":[2,4,6,8,10,12,14,16,18,20,22,24,26,28,30,32,34,36,38,40,42,44,46,-1,48,50,52,54,-1,56,58,-1,-1,-1,-1,-1,-1,-1,-1,-1,-1,-1,-1,-1,-1,-1,-1,-1,-1,-1,-1,-1,-1,-1,-1,-1,-1,-1,-1],"split_conditions":[2.965E2,2.0125E3,4.8673E4,2.0075E3,1.46E2,3.35E2,1.175E5,2.0015E3,1.83E2,9.95E1,2.305E2,2.008E3,2.0095E3,2E0,2.0115E3,9.65E1,1.485E2,1.015E2,2.22E2,1.0275E5,1.5E0,1.5E0,1.760885E5,3.0731626E3,2.0165E3,2.0055E3,4E0,2.5E0,2.4187123E4,1.5E0,7.535E2,1.2896621E3,2.6722014E3,3.99232E3,8.379112E3,5.2443276E3,7.989919E3,1.6361172E4,2.6534959E4,9.298653E3,7.011678E3,1.1206612E4,1.5221983E4,1.2484334E4,2.6131707E4,7.581841E4,3.656588E4,3.804324E4,1.3461194E5,7.9604297E2,1.3160512E5,2.461299E5,5.386332E4,1.1247354E5,9.006308E3,3.2215818E3,1.8620453E4,6.6670234E4,3.7181511E3],"split_indices":[9,3,4,3,9,9,4,3,9,9,9,3,3,20,3,9,9,9,9,4,5,5,4,0,3,3,6,5,0,5,9,0,0,0,0,0,0,0,0,0,0,0,0,0,0,0,0,0,0,0,0,0,0,0,0,0,0,0,0],"split_type":[0,0,0,0,0,0,0,0,0,0,0,0,0,0,0,0,0,0,0,0,0,0,0,0,0,0,0,0,0,0,0,0,0,0,0,0,0,0,0,0,0,0,0,0,0,0,0,0,0,0,0,0,0,0,0,0,0,0,0],"sum_hessian":[7.4869E4,7.4659E4,2.1E2,4.2756E4,3.1903E4,7.4E1,1.36E2,2.1606E4,2.115E4,2.9061E4,2.842E3,1.6E1,5.8E1,3.3E1,1.03E2,8.599E3,1.3007E4,2.0527E4,6.23E2,1.3714E4,1.5347E4,2.723E3,1.19E2,1E0,1.5E1,7E0,5.1E1,3E1,3E0,6.1E1,4.2E1,4.45E3,4.149E3,1.2059E4,9.48E2,9.809E3,1.0718E4,4.25E2,1.98E2,6.056E3,7.658E3,6.631E3,8.716E3,4.94E2,2.229E3,9.8E1,2.1E1,1E0,1.4E1,1E0,6E0,4.9E1,2E0,2.9E1,1E0,1.4E1,4.7E1,3.7E1,5E0],"tree_param":{"num_deleted":"0","num_feature":"25","num_nodes":"59","size_leaf_vector":"0"}},{"base_weights":[1.6104662E5,1.5577978E5,2.0327932E6,1.1847735E5,2.374452E5,2.6833335E6,1.0822209E6,8.131299E4,1.3817152E5,2.0699145E5,3.5125962E5,9.133575E4,2.9348438E6,1.5126504E6,5.3864994E5,8.704206E4,3.4779887E4,2.1730736E5,1.3460244E5,2.3818077E5,1.2504673E5,3.2274622E5,6.7146475E5,6.0555277E4,1.3775789E5,2.23641E6,4.3665935E6,7.688228E4,1.797882E6,3.9228675E5,1.7578471E6,6.749483E4,9.6554664E4,2.0126822E4,4.2170133E4,1.5756086E5,2.287903E5,1.4222864E5,1.08405664E5,2.2130303E5,3.1120028E5,8.378198E4,1.6259625E5,3.6077922E5,1.7278517E5,1.1496005E6,5.568228E5,1.3323668E4,7.214664E4,1.7165217E5,1.8037523E4,2.8070898E6,1.0544931E6,5.5802025E6,3.4380228E6,1.3756808E6,3.3147268E6,1.5627324E6,3.1636516E5,3.7395788E5,2.9547575E6],"categories":[],"categories_nodes":[],"categories_segments":[],"categories_sizes":[],"default_left":[1,1,1,1,1,1,1,1,1,1,1,1,1,1,1,1,1,1,1,1,1,1,1,1,1,1,1,0,1,1,1,0,0,0,0,0,0,0,0,0,0,0,0,0,0,0,0,0,0,0,0,0,0,0,0,0,0,0,0,0,0],"id":9,"left_children":[1,3,5,7,9,11,13,15,17,19,21,23,25,27,29,31,33,35,37,39,41,43,45,47,49,51,53,-1,55,57,59,-1,-1,-1,-1,-1,-1,-1,-1,-1,-1,-1,-1,-1,-1,-1,-1,-1,-1,-1,-1,-1,-1,-1,-1,-1,-1,-1,-1,-1,-1],"loss_changes":[7.377664E14,2.2741315E14,1.2695702E14,3.750191E13,8.106469E13,8.056929E13,1.9540507E13,4.7303025E12,9.432285E12,4.7175787E13,4.4886233E13,8.80477E9,1.0323249E14,1.951905E13,6.4482443E12,2.9329006E12,2.100995E11,9.546278E11,6.388764E12,1.6417043E13,7.879386E12,2.5820001E13,2.1450073E13,3.9660524E9,1.3135167E10,4.9650627E13,2.1384374E13,0E0,2.1056555E13,2.793504E12,5.52061E12,0E0,0E0,0E0,0E0,0E0,0E0,0E0,0E0,0E0,0E0,0E0,0E0,0E0,0E0,0E0,0E0,0E0,0E0,0E0,0E0,0E0,0E0,0E0,0E0,0E0,0E0,0E0,0E0,0E0,0E0],"parents":[2147483647,0,0,1,1,2,2,3,3,4,4,5,5,6,6,7,7,8,8,9,9,10,10,11,11,12,12,13,13,14,14,15,15,16,16,17,17,18,18,19,19,20,20,21,21,22,22,23,23,24,24,25,25,26,26,28,28,29,29,30,30],"right_children":[2,4,6,8,10,12,14,16,18,20,22,24,26,28,30,32,34,36,38,40,42,44,46,48,50,52,54,-1,56,58,60,-1,-1,-1,-1,-1,-1,-1,-1,-1,-1,-1,-1,-1,-1,-1,-1,-1,-1,-1,-1,-1,-1,-1,-1,-1,-1,-1,-1,-1,-1],"split_conditions":[2.99E2,1.145E2,3.5E0,8.95E1,1.555E2,1.5E0,1.6E1,1.4985E3,1.2095E3,1.5985E3,2.34E2,5E-1,4.35E2,2.7335E3,5.9955E3,7.45E1,7.45E1,9.48E2,1.5E0,1.355E2,1.395E2,2.311E3,2.2465E3,1.3055E3,3.855E4,3.812E3,3.942E3,3.844114E3,4.11E2,2.2475E3,5E-1,3.3747415E3,4.8277334E3,1.0063411E3,2.1085066E3,7.878043E3,1.1439515E4,7.111432E3,5.420283E3,1.1065151E4,1.5560015E4,4.189099E3,8.1298125E3,1.803896E4,8.639259E3,5.7480027E4,2.784114E4,6.661834E2,3.607332E3,8.582608E3,9.0187616E2,1.4035448E5,5.2724656E4,2.7901012E5,1.7190114E5,6.878404E4,1.6573634E5,7.813662E4,1.5818258E4,1.8697895E4,1.4773788E5],"split_indices":[9,9,7,9,9,7,7,8,8,8,9,12,9,8,8,9,9,8,21,9,9,8,8,9,9,8,8,0,9,8,12,0,0,0,0,0,0,0,0,0,0,0,0,0,0,0,0,0,0,0,0,0,0,0,0,0,0,0,0,0,0],"split_type":[0,0,0,0,0,0,0,0,0,0,0,0,0,0,0,0,0,0,0,0,0,0,0,0,0,0,0,0,0,0,0,0,0,0,0,0,0,0,0,0,0,0,0,0,0,0,0,0,0,0,0,0,0,0,0,0,0,0,0,0,0],"sum_hessian":[7.4869E4,7.466E4,2.09E2,5.1252E4,2.3408E4,1.23E2,8.6E1,1.7754E4,3.3498E4,1.8469E4,4.939E3,1.1E1,1.12E2,4.7E1,3.9E1,1.5807E4,1.947E3,1.443E3,3.2055E4,1.3376E4,5.093E3,4.537E3,4.02E2,8E0,3E0,7.7E1,3.5E1,8E0,3.9E1,3.6E1,3E0,5.177E3,1.063E4,6.54E2,1.293E3,2.35E2,1.208E3,2.4824E4,7.231E3,1.0868E4,2.508E3,2.428E3,2.665E3,3.618E3,9.19E2,7.6E1,3.26E2,2E0,6E0,2E0,1E0,5.1E1,2.6E1,1.3E1,2.2E1,3.2E1,7E0,1E0,3.5E1,2E0,1E0],"tree_param":{"num_deleted":"0","num_feature":"25","num_nodes":"61","size_leaf_vector":"0"}},{"base_weights":[1.5301234E5,1.4799339E5,1.9366608E6,1.16014734E5,2.3397722E5,9.2994344E5,2.6004252E6,7.724798E4,1.347823E5,2.2575538E5,6.381032E5,1.6606092E5,1.3225601E6,1.8958191E6,4.0679328E6,7.128207E4,1.0506864E5,1.4948603E5,1.1064687E5,2.0175762E5,3.0661478E5,3.7746738E5,8.830653E5,3.740798E5,7.341407E4,1.467974E6,9.495164E4,1.3019019E6,2.741013E6,4.1671318E6,9.958372E4,8.245553E4,5.082396E4,9.457818E4,1.2605948E5,1.2826809E5,1.7381958E5,8.37767E4,1.561405E5,2.1508823E5,1.4424386E5,3.4209812E5,1.8466831E5,4.3687316E5,2.8123456E5,9.997203E5,6.83385E4,3.9957925E5,8.504209E4,4.538511E4,1.2699255E5,1.2508329E6,3.6523888E6,3.3374047E4,1.6593042E5,3.9009925E5,1.6192131E6,3.2485288E6,1.7477018E6,2.8174738E6,4.7335965E6],"categories":[],"categories_nodes":[],"categories_segments":[],"categories_sizes":[],"default_left":[1,1,1,1,1,1,1,1,1,1,1,1,1,1,1,1,1,1,1,1,1,1,1,1,1,1,1,1,1,1,0,0,0,0,0,0,0,0,0,0,0,0,0,0,0,0,0,0,0,0,0,0,0,0,0,0,0,0,0,0,0],"id":10,"left_children":[1,3,5,7,9,11,13,15,17,19,21,23,25,27,29,31,33,35,37,39,41,43,45,47,49,51,53,55,57,59,-1,-1,-1,-1,-1,-1,-1,-1,-1,-1,-1,-1,-1,-1,-1,-1,-1,-1,-1,-1,-1,-1,-1,-1,-1,-1,-1,-1,-1,-1,-1],"loss_changes":[6.699517E14,2.0526427E14,1.3790858E14,3.9585506E13,6.7103227E13,2.5272972E13,1.225738E14,2.9394018E12,1.2996571E13,3.8430696E13,2.5396578E13,5.5070615E11,9.857252E12,4.0103318E13,1.5331356E13,3.338448E12,6.779736E11,1.1741266E13,1.6961463E13,1.1699357E13,1.9573105E13,1.0033425E12,1.9605368E13,3.2351584E10,2.7274904E10,1.9147786E13,2.505714E10,1.4702579E13,1.1966769E13,1.6479991E13,0E0,0E0,0E0,0E0,0E0,0E0,0E0,0E0,0E0,0E0,0E0,0E0,0E0,0E0,0E0,0E0,0E0,0E0,0E0,0E0,0E0,0E0,0E0,0E0,0E0,0E0,0E0,0E0,0E0,0E0,0E0],"parents":[2147483647,0,0,1,1,2,2,3,3,4,4,5,5,6,6,7,7,8,8,9,9,10,10,11,11,12,12,13,13,14,14,15,15,16,16,17,17,18,18,19,19,20,20,21,21,22,22,23,23,24,24,25,25,26,26,27,27,28,28,29,29],"right_children":[2,4,6,8,10,12,14,16,18,20,22,24,26,28,30,32,34,36,38,40,42,44,46,48,50,52,54,56,58,60,-1,-1,-1,-1,-1,-1,-1,-1,-1,-1,-1,-1,-1,-1,-1,-1,-1,-1,-1,-1,-1,-1,-1,-1,-1,-1,-1,-1,-1,-1,-1],"split_conditions":[2.99E2,1.155E2,2.5E0,8.95E1,2.34E2,3.2E1,4.35E2,2.5E0,1.5E0,1.555E2,3.55E1,3.14E2,4.695E2,4.8E1,2.5E0,1.5E0,8.15E1,1.015E2,2.5E0,1.5E0,4.65E1,1.5E0,5.15E1,3.5E0,5E-1,4.06E2,5.75E1,5.5E0,3.475E2,1.25E1,4.979186E3,4.122777E3,2.541198E3,4.728909E3,6.302974E3,6.413405E3,8.6909795E3,4.1888354E3,7.807025E3,1.0754412E4,7.212193E3,1.7104906E4,9.233416E3,2.1843658E4,1.4061729E4,4.9986016E4,3.416925E3,1.9978963E4,4.252105E3,2.2692556E3,6.3496274E3,6.2541645E4,1.8261944E5,1.6687024E3,8.296521E3,1.9504963E4,8.096066E4,1.6242644E5,8.7385086E4,1.4087369E5,2.3667983E5],"split_indices":[9,9,6,9,9,0,9,6,6,9,0,9,9,0,22,6,9,9,6,21,0,6,0,12,13,9,0,0,9,0,0,0,0,0,0,0,0,0,0,0,0,0,0,0,0,0,0,0,0,0,0,0,0,0,0,0,0,0,0,0,0],"split_type":[0,0,0,0,0,0,0,0,0,0,0,0,0,0,0,0,0,0,0,0,0,0,0,0,0,0,0,0,0,0,0,0,0,0,0,0,0,0,0,0,0,0,0,0,0,0,0,0,0,0,0,0,0,0,0,0,0,0,0,0,0],"sum_hessian":[7.4869E4,7.466E4,2.09E2,5.4422E4,2.0238E4,8.4E1,1.25E2,1.7754E4,3.6668E4,1.9836E4,4.02E2,2.9E1,5.5E1,8.6E1,3.9E1,1.4622E4,3.132E3,2.2783E4,1.3885E4,1.5299E4,4.537E3,1.96E2,2.06E2,8E0,2.1E1,4.9E1,6E0,5.2E1,3.4E1,3.8E1,1E0,9.455E3,5.167E3,2.092E3,1.04E3,1.2174E4,1.0609E4,8.731E3,5.154E3,1.2418E4,2.881E3,3.513E3,1.024E3,1.19E2,7.7E1,1.8E2,2.6E1,7E0,1E0,1.5E1,6E0,4.6E1,3E0,4E0,2E0,1.4E1,3.8E1,2.1E1,1.3E1,1.3E1,2.5E1],"tree_param":{"num_deleted":"0","num_feature":"25","num_nodes":"61","size_leaf_vector":"0"}},{"base_weights":[1.4537773E5,8.741217E4,2.2305194E5,4.9241625E4,1.1851656E5,1.7582689E5,3.2209366E5,2.6442828E4,6.769072E4,1.0612324E5,1.5494289E5,2.0394436E5,1.4848158E5,1.4461732E6,3.1273603E5,1.4698486E4,3.797566E4,6.3405426E4,9.144506E4,8.8310555E4,1.2136481E5,6.908271E5,1.4895245E5,2.3498519E5,1.9494766E5,1.6003238E5,1.2659902E5,2.16768E6,3.535154E5,3.5540353E5,1.3829E5,5.9209253E3,1.9126947E4,2.7885096E4,4.1003543E4,5.6157527E4,6.988003E4,4.3366872E5,8.7554914E4,9.52646E4,6.9710914E4,1.3159486E5,1.0221788E5,2.07278E5,1.2641768E6,1.8451572E5,7.446633E4,2.1487266E5,2.6316534E5,1.7260488E5,2.1031327E5,1.3097032E5,1.6821689E5,9.564691E4,1.3487058E5,1.7346812E6,5.804333E6,1.9520552E5,2.8680258E6,3.505806E5,2.4214785E6,1.3072901E5,3.1516595E6],"categories":[],"categories_nodes":[],"categories_segments":[],"categories_sizes":[],"default_left":[1,1,1,1,1,1,1,1,1,1,1,1,1,1,1,1,1,1,1,1,1,1,1,1,1,1,1,1,1,1,1,0,0,0,0,0,0,0,0,0,0,0,0,0,0,0,0,0,0,0,0,0,0,0,0,0,0,0,0,0,0,0,0],"id":11,"left_children":[1,3,5,7,9,11,13,15,17,19,21,23,25,27,29,31,33,35,37,39,41,43,45,47,49,51,53,55,57,59,61,-1,-1,-1,-1,-1,-1,-1,-1,-1,-1,-1,-1,-1,-1,-1,-1,-1,-1,-1,-1,-1,-1,-1,-1,-1,-1,-1,-1,-1,-1,-1,-1],"loss_changes":[3.3707735E14,5.0899624E13,1.4959197E14,8.096353E12,1.0648465E13,1.6629107E13,1.0819553E14,1.1660343E12,1.07739506E12,4.7757016E12,1.914215E13,2.936751E12,2.757067E12,6.62443E13,7.620614E13,1.6582751E11,1.31609395E11,4.1926263E11,2.1240637E12,1.04530444E12,1.8469618E12,1.8035983E13,1.5694649E13,1.3008802E12,2.8083717E12,1.6876873E12,9.6023976E11,7.0239325E13,1.3372662E13,8.116945E13,4.549782E13,0E0,0E0,0E0,0E0,0E0,0E0,0E0,0E0,0E0,0E0,0E0,0E0,0E0,0E0,0E0,0E0,0E0,0E0,0E0,0E0,0E0,0E0,0E0,0E0,0E0,0E0,0E0,0E0,0E0,0E0,0E0,0E0],"parents":[2147483647,0,0,1,1,2,2,3,3,4,4,5,5,6,6,7,7,8,8,9,9,10,10,11,11,12,12,13,13,14,14,15,15,16,16,17,17,18,18,19,19,20,20,21,21,22,22,23,23,24,24,25,25,26,26,27,27,28,28,29,29,30,30],"right_children":[2,4,6,8,10,12,14,16,18,20,22,24,26,28,30,32,34,36,38,40,42,44,46,48,50,52,54,56,58,60,62,-1,-1,-1,-1,-1,-1,-1,-1,-1,-1,-1,-1,-1,-1,-1,-1,-1,-1,-1,-1,-1,-1,-1,-1,-1,-1,-1,-1,-1,-1,-1,-1],"split_conditions":[2.0125E3,2.0065E3,1.9625E3,2.0015E3,2.386E3,1.032915E5,3.2E1,1.9985E3,2.993E3,2.0105E3,4.6673E4,2.799E4,1.701005E5,3.971E3,3.9775E3,1.9955E3,1.9995E3,1.3705E3,1.961E4,2.446525E5,1.952E5,5E-1,3.978E3,7.545E2,9.14E2,6.175E2,5.915E2,3.933E3,2.15E1,3.9695E3,4.241E3,2.9604626E2,9.5634735E2,1.3942548E3,2.0501772E3,2.8078765E3,3.4940017E3,2.1683436E4,4.3777456E3,4.76323E3,3.4855457E3,6.579743E3,5.110894E3,1.03639E4,6.320884E4,9.225786E3,3.7233164E3,1.0743633E4,1.3158268E4,8.630244E3,1.0515663E4,6.548516E3,8.410845E3,4.782345E3,6.743529E3,8.673406E4,2.9021666E5,9.760276E3,1.434013E5,1.752903E4,1.2107393E5,6.5364507E3,1.5758298E5],"split_indices":[3,3,2,3,2,4,4,3,2,3,4,4,4,2,2,3,3,2,4,4,4,22,2,2,2,2,2,2,4,2,2,0,0,0,0,0,0,0,0,0,0,0,0,0,0,0,0,0,0,0,0,0,0,0,0,0,0,0,0,0,0,0,0],"split_type":[0,0,0,0,0,0,0,0,0,0,0,0,0,0,0,0,0,0,0,0,0,0,0,0,0,0,0,0,0,0,0,0,0,0,0,0,0,0,0,0,0,0,0,0,0,0,0,0,0,0,0,0,0,0,0,0,0,0,0,0,0,0,0],"sum_hessian":[7.4869E4,4.2875E4,3.1994E4,1.9252E4,2.3623E4,2.1666E4,1.0328E4,8.612E3,1.064E4,1.7629E4,5.994E3,1.0679E4,1.0987E4,8.4E1,1.0244E4,4.268E3,4.344E3,9.017E3,1.623E3,8.132E3,9.497E3,6.5E1,5.929E3,2.394E3,8.285E3,7.187E3,3.8E3,5E1,3.4E1,8.23E3,2.014E3,1.432E3,2.836E3,1.005E3,3.339E3,4.259E3,4.758E3,1.7E1,1.606E3,5.916E3,2.216E3,6.186E3,3.311E3,3.6E1,2.9E1,4.012E3,1.917E3,1.402E3,9.92E2,3.381E3,4.904E3,1.583E3,5.604E3,8.04E2,2.996E3,4.6E1,4E0,3.3E1,1E0,8.212E3,1.8E1,2.01E3,4E0],"tree_param":{"num_deleted":"0","num_feature":"25","num_nodes":"63","size_leaf_vector":"0"}},{"base_weights":[1.3812283E5,1.1548654E5,1.7555753E5,1.7040086E5,1.0799893E5,9.2600586E4,1.971394E5,1.1612553E5,2.1657638E5,1.15177945E5,8.584492E4,6.7463336E4,1.0213462E5,3.752779E5,1.6744092E5,6.2061465E4,1.22986555E5,2.5077631E5,1.9718934E5,9.9503016E4,1.3645806E5,9.882491E4,6.955562E4,1.1603526E5,5.465635E4,2.2759653E5,8.3789805E4,3.3247684E5,2.4013458E6,1.3697036E5,2.0728947E5,6.375203E4,3.441528E4,1.6252255E5,1.03085805E5,2.423885E5,3.4834494E5,6.710643E4,2.014618E5,5.396763E4,1.00773586E5,1.3936438E5,1.01866664E5,9.111578E4,1.0387936E5,7.771328E4,4.5086055E4,1.2029089E5,9.693221E4,4.4901645E4,6.6254125E4,2.3514423E5,1.7786684E5,5.676796E4,9.336918E4,2.7180703E5,5.0271544E5,4.7778175E6,1.9911802E6,2.2344489E5,1.25023836E5,2.3652781E5,1.0921494E5],"categories":[],"categories_nodes":[],"categories_segments":[],"categories_sizes":[],"default_left":[1,1,1,1,1,1,1,1,1,1,1,1,1,1,1,1,1,1,1,1,1,1,1,1,1,1,1,1,1,1,1,0,0,0,0,0,0,0,0,0,0,0,0,0,0,0,0,0,0,0,0,0,0,0,0,0,0,0,0,0,0,0,0],"id":12,"left_children":[1,3,5,7,9,11,13,15,17,19,21,23,25,27,29,31,33,35,37,39,41,43,45,47,49,51,53,55,57,59,61,-1,-1,-1,-1,-1,-1,-1,-1,-1,-1,-1,-1,-1,-1,-1,-1,-1,-1,-1,-1,-1,-1,-1,-1,-1,-1,-1,-1,-1,-1,-1,-1],"loss_changes":[6.3423245E13,1.9167097E13,5.0489756E13,1.4002013E13,6.5211025E12,1.3893632E12,1.1836896E14,9.475247E11,1.954898E12,1.0330571E13,2.1188953E12,9.9206405E11,9.698179E12,2.765253E14,2.3271072E13,1.1453465E10,1.780287E12,8.0760485E11,1.06134346E12,1.02794E12,1.3079182E12,2.084653E11,8.87175E11,1.549271E10,1.4093019E11,1.6011126E11,9.485691E11,3.2222053E13,5.481979E13,1.1208757E13,2.3812003E13,0E0,0E0,0E0,0E0,0E0,0E0,0E0,0E0,0E0,0E0,0E0,0E0,0E0,0E0,0E0,0E0,0E0,0E0,0E0,0E0,0E0,0E0,0E0,0E0,0E0,0E0,0E0,0E0,0E0,0E0,0E0,0E0],"parents":[2147483647,0,0,1,1,2,2,3,3,4,4,5,5,6,6,7,7,8,8,9,9,10,10,11,11,12,12,13,13,14,14,15,15,16,16,17,17,18,18,19,19,20,20,21,21,22,22,23,23,24,24,25,25,26,26,27,27,28,28,29,29,30,30],"right_children":[2,4,6,8,10,12,14,16,18,20,22,24,26,28,30,32,34,36,38,40,42,44,46,48,50,52,54,56,58,60,62,-1,-1,-1,-1,-1,-1,-1,-1,-1,-1,-1,-1,-1,-1,-1,-1,-1,-1,-1,-1,-1,-1,-1,-1,-1,-1,-1,-1,-1,-1,-1,-1],"split_conditions":[1.9355E3,3.5E0,1.5E0,1.5E0,1.5E0,2.699E3,3.5E0,1.04E3,1.2505E3,5E-1,1.5E0,2.1165E3,2.7845E3,3.955E3,5E-1,8.235E2,1.232E3,1.0975E3,2.5E0,6.5E0,1.5E0,9.035E2,2.5E0,1.5E0,2.3235E3,2.762E3,4.0175E3,3.0725E3,3.9575E3,1.9885E3,1.5E0,3.1876016E3,1.720764E3,8.1261274E3,5.1542905E3,1.2119425E4,1.7417248E4,3.3553215E3,1.007309E4,2.6983816E3,5.038679E3,6.9682188E3,5.0933335E3,4.555789E3,5.1939683E3,3.885664E3,2.2543027E3,6.0145444E3,4.846611E3,2.2450823E3,3.3127063E3,1.1757212E4,8.893343E3,2.8383982E3,4.668459E3,1.3590352E4,2.5135771E4,2.3889088E5,9.9559016E4,1.1172245E4,6.251192E3,1.1826391E4,5.460747E3],"split_indices":[2,7,7,7,19,2,7,2,2,22,18,2,2,2,22,2,2,2,7,7,18,2,16,19,2,2,2,2,2,2,19,0,0,0,0,0,0,0,0,0,0,0,0,0,0,0,0,0,0,0,0,0,0,0,0,0,0,0,0,0,0,0,0],"split_type":[0,0,0,0,0,0,0,0,0,0,0,0,0,0,0,0,0,0,0,0,0,0,0,0,0,0,0,0,0,0,0,0,0,0,0,0,0,0,0,0,0,0,0,0,0,0,0,0,0,0,0,0,0,0,0,0,0,0,0,0,0,0,0],"sum_hessian":[7.4869E4,4.6659E4,2.821E4,5.596E3,4.1063E4,5.825E3,2.2385E4,2.574E3,3.022E3,3.101E4,1.0053E4,1.604E3,4.221E3,3.197E3,1.9188E4,2.91E2,2.283E3,1.089E3,1.933E3,1.786E4,1.315E4,5.592E3,4.461E3,3.33E2,1.271E3,5.37E2,3.684E3,3.132E3,6.5E1,1.0876E4,8.312E3,2.73E2,1.8E1,7.62E2,1.521E3,1.006E3,8.3E1,6.2E1,1.871E3,4.86E2,1.7374E4,1.2128E4,1.022E3,2.222E3,3.37E3,3.344E3,1.117E3,2.68E2,6.5E1,6.93E2,5.78E2,4.63E2,7.4E1,9.66E2,2.718E3,2.311E3,8.21E2,8E0,5.7E1,1.318E3,9.558E3,6.402E3,1.91E3],"tree_param":{"num_deleted":"0","num_feature":"25","num_nodes":"63","size_leaf_vector":"0"}},{"base_weights":[1.3122406E5,1.0989431E5,1.5790973E5,1.4174766E5,1.06394125E5,1.7772838E5,8.467455E4,1.0292893E5,2.2176358E5,6.0188773E4,1.085421E5,2.700478E5,1.6908072E5,1.0703076E5,5.85892E4,1.16845266E5,6.801708E4,8.9100456E5,2.2060181E5,3.0513656E4,7.053597E4,1.0705433E5,1.4947967E5,1.7048042E5,4.254695E5,1.14600664E5,1.7441125E5,1.24604945E5,9.225786E4,7.2385086E4,3.9334996E4,8.0781805E4,1.4845669E5,4.2005703E4,8.9989414E4,2.55699E5,2.0863722E5,2.6306738E4,3.950739E4,1.1136504E5,5.3957445E4,1.1084323E5,7.834672E4,2.7790453E5,1.23232734E5,2.0720906E5,1.16534125E5,3.1629935E6,3.9971903E5,8.3998484E4,1.28137945E5,4.7402872E5,1.7002447E5,1.7890395E5,1.1876099E5,1.0368454E5,7.985906E4,9.590408E4,6.5193008E4,4.4473793E4,3.1445527E4],"categories":[],"categories_nodes":[],"categories_segments":[],"categories_sizes":[],"default_left":[1,1,1,1,1,1,1,1,1,1,1,1,1,1,1,1,1,0,1,1,1,1,1,1,1,1,1,1,1,1,1,0,0,0,0,0,0,0,0,0,0,0,0,0,0,0,0,0,0,0,0,0,0,0,0,0,0,0,0,0,0],"id":13,"left_children":[1,3,5,7,9,11,13,15,17,19,21,23,25,27,29,31,33,-1,35,37,39,41,43,45,47,49,51,53,55,57,59,-1,-1,-1,-1,-1,-1,-1,-1,-1,-1,-1,-1,-1,-1,-1,-1,-1,-1,-1,-1,-1,-1,-1,-1,-1,-1,-1,-1,-1,-1],"loss_changes":[4.259856E13,4.6245725E12,4.8254897E13,1.2765045E13,3.7150796E12,2.0849516E13,4.1254839E12,1.3397865E12,8.4840284E11,5.1001426E11,2.1663077E12,3.4591314E13,6.930668E12,9.787031E11,8.662905E11,2.247522E12,4.494438E11,0E0,5.1061037E11,1.5343649E10,8.3062214E11,3.752392E12,4.192685E12,2.6843923E12,6.034617E13,8.741181E11,2.8570995E13,5.3057316E11,2.8583972E11,3.1597894E11,5.406353E10,0E0,0E0,0E0,0E0,0E0,0E0,0E0,0E0,0E0,0E0,0E0,0E0,0E0,0E0,0E0,0E0,0E0,0E0,0E0,0E0,0E0,0E0,0E0,0E0,0E0,0E0,0E0,0E0,0E0,0E0],"parents":[2147483647,0,0,1,1,2,2,3,3,4,4,5,5,6,6,7,7,8,8,9,9,10,10,11,11,12,12,13,13,14,14,15,15,16,16,18,18,19,19,20,20,21,21,22,22,23,23,24,24,25,25,26,26,27,27,28,28,29,29,30,30],"right_children":[2,4,6,8,10,12,14,16,18,20,22,24,26,28,30,32,34,-1,36,38,40,42,44,46,48,50,52,54,56,58,60,-1,-1,-1,-1,-1,-1,-1,-1,-1,-1,-1,-1,-1,-1,-1,-1,-1,-1,-1,-1,-1,-1,-1,-1,-1,-1,-1,-1,-1,-1],"split_conditions":[5E-1,8.75E1,1.5E0,4.55E1,1.015E2,8.35E1,1.5E0,2.95E1,4.65E1,8.85E1,5.805E2,4.45E1,1.295E2,1.5E0,1.5E0,2.25E1,3.15E1,4.455023E4,5.3E1,5E-1,8.95E1,5.225E2,6.105E2,2.65E1,5.05E1,9.95E1,1.305E2,8.6E1,1.5E0,1.5E0,3.145E2,4.0390903E3,7.4228345E3,2.1002852E3,4.4994707E3,1.278495E4,1.0431861E4,1.3153369E3,1.9753695E3,5.568252E3,2.6978723E3,5.5421616E3,3.917336E3,1.3895227E4,6.1616367E3,1.0360453E4,5.8267065E3,1.5814967E5,1.9985951E4,4.1999243E3,6.4068975E3,2.3701436E4,8.501224E3,8.945198E3,5.93805E3,5.184227E3,3.9929531E3,4.795204E3,3.2596504E3,2.2236897E3,1.5722764E3],"split_indices":[22,1,21,1,1,1,23,1,1,1,1,1,1,19,16,1,1,0,1,19,1,1,1,1,1,1,1,1,13,11,1,0,0,0,0,0,0,0,0,0,0,0,0,0,0,0,0,0,0,0,0,0,0,0,0,0,0,0,0,0,0],"split_type":[0,0,0,0,0,0,0,0,0,0,0,0,0,0,0,0,0,0,0,0,0,0,0,0,0,0,0,0,0,0,0,0,0,0,0,0,0,0,0,0,0,0,0,0,0,0,0,0,0,0,0,0,0,0,0,0,0,0,0,0,0],"sum_hessian":[7.4869E4,4.1613E4,3.3256E4,4.116E3,3.7497E4,2.6172E4,7.084E3,2.773E3,1.343E3,1.667E3,3.583E4,2.239E3,2.3933E4,3.813E3,3.271E3,1.981E3,7.92E2,1E0,1.342E3,4.32E2,1.235E3,3.4577E4,1.253E3,1.366E3,8.73E2,2.135E3,2.1798E4,1.738E3,2.075E3,1.904E3,1.367E3,9.27E2,1.054E3,3.64E2,4.28E2,3.36E2,1.006E3,2.97E2,1.35E2,3.55E2,8.8E2,3.0543E4,4.034E3,2.11E2,1.042E3,8.11E2,5.55E2,7E0,8.66E2,6.57E2,1.478E3,3.13E2,2.1485E4,1.66E2,1.572E3,1.076E3,9.99E2,4.43E2,1.461E3,8.25E2,5.42E2],"tree_param":{"num_deleted":"0","num_feature":"25","num_nodes":"61","size_leaf_vector":"0"}},{"base_weights":[1.2466821E5,1.200447E5,1.760053E6,8.857764E4,1.8893831E5,8.4571725E5,2.3581512E6,5.7681535E4,1.04950414E5,1.6309364E5,2.8554938E5,1.1090122E6,4.1326344E4,1.7329874E6,3.674558E6,4.0686027E4,6.5989164E4,1.1597927E5,8.501909E4,1.7555834E5,1.1255626E5,2.6086016E5,5.635448E5,9.4009525E5,3.4077442E6,-1.3308702E5,6.542203E4,1.9413496E6,2.515807E5,3.765E6,7.366178E4,2.9871162E4,5.469101E4,5.5454133E4,7.621542E4,1.0192505E5,1.3419145E5,5.9576285E4,1.2854091E5,1.4667756E5,2.0609589E5,1.3000994E5,6.88645E4,2.2363466E5,3.3184872E5,6.690199E5,3.4273194E5,1.1779796E6,2.5510145E5,1.5916223E4,-2.1554675E5,4.549475E4,1.16104914E5,2.187353E6,1.4047744E6,1.3342756E5,3.9030956E5,4.986747E6,3.341907E6],"categories":[],"categories_nodes":[],"categories_segments":[],"categories_sizes":[],"default_left":[1,1,1,1,1,1,1,1,1,1,1,1,1,1,1,1,1,1,1,1,1,1,1,1,0,1,1,1,1,1,0,0,0,0,0,0,0,0,0,0,0,0,0,0,0,0,0,0,0,0,0,0,0,0,0,0,0,0,0],"id":14,"left_children":[1,3,5,7,9,11,13,15,17,19,21,23,25,27,29,31,33,35,37,39,41,43,45,47,-1,49,51,53,55,57,-1,-1,-1,-1,-1,-1,-1,-1,-1,-1,-1,-1,-1,-1,-1,-1,-1,-1,-1,-1,-1,-1,-1,-1,-1,-1,-1,-1,-1],"loss_changes":[5.6589644E14,1.6183719E14,1.1339365E14,2.592053E13,5.8400415E13,1.79565E13,9.81492E13,2.5041882E12,7.3538564E12,1.1615135E13,3.37518E13,2.1647281E13,1.0116424E11,2.6674482E13,1.2749543E13,8.81693E11,1.280391E12,5.505544E12,1.3210388E13,1.3034957E13,2.7798085E12,1.191783E13,9.133391E12,9.639408E12,0E0,4.029099E10,1.491728E10,7.091226E12,1.4461698E11,3.494325E12,0E0,0E0,0E0,0E0,0E0,0E0,0E0,0E0,0E0,0E0,0E0,0E0,0E0,0E0,0E0,0E0,0E0,0E0,0E0,0E0,0E0,0E0,0E0,0E0,0E0,0E0,0E0,0E0,0E0],"parents":[2147483647,0,0,1,1,2,2,3,3,4,4,5,5,6,6,7,7,8,8,9,9,10,10,11,11,12,12,13,13,14,14,15,15,16,16,17,17,18,18,19,19,20,20,21,21,22,22,23,23,25,25,26,26,27,27,28,28,29,29],"right_children":[2,4,6,8,10,12,14,16,18,20,22,24,26,28,30,32,34,36,38,40,42,44,46,48,-1,50,52,54,56,58,-1,-1,-1,-1,-1,-1,-1,-1,-1,-1,-1,-1,-1,-1,-1,-1,-1,-1,-1,-1,-1,-1,-1,-1,-1,-1,-1,-1,-1],"split_conditions":[2.965E2,1.145E2,2.5E0,8.95E1,1.555E2,4.695E2,4.35E2,7.45E1,1.5E0,1.5E0,2.34E2,4.06E2,1.0555E3,2E0,2.5E0,-5E-1,-5E-1,1.015E2,2.5E0,5E-1,1.5E0,2.5E0,1.5E0,1.5E0,1.7038722E5,7.385E2,5E-1,3.525E2,5E-1,4.55E2,3.683089E3,1.4935581E3,2.7345505E3,2.7727068E3,3.8107712E3,5.0962524E3,6.7095728E3,2.9788142E3,6.4270454E3,7.3338784E3,1.0304795E4,6.500497E3,3.443225E3,1.1181733E4,1.6592436E4,3.3450996E4,1.7136598E4,5.889898E4,1.2755073E4,7.9581116E2,-1.0777338E4,2.2747375E3,5.8052456E3,1.0936765E5,7.023872E4,6.6713784E3,1.9515479E4,2.4933736E5,1.6709536E5],"split_indices":[9,9,6,9,9,9,9,9,6,19,9,9,9,19,22,10,10,9,6,19,12,6,6,6,0,9,11,9,12,9,0,0,0,0,0,0,0,0,0,0,0,0,0,0,0,0,0,0,0,0,0,0,0,0,0,0,0,0,0],"split_type":[0,0,0,0,0,0,0,0,0,0,0,0,0,0,0,0,0,0,0,0,0,0,0,0,0,0,0,0,0,0,0,0,0,0,0,0,0,0,0,0,0,0,0,0,0,0,0,0,0,0,0,0,0,0,0,0,0,0,0],"sum_hessian":[7.4869E4,7.4659E4,2.1E2,5.1252E4,2.3407E4,8.4E1,1.26E2,1.7754E4,3.3498E4,1.8469E4,4.938E3,6.3E1,2.1E1,8.7E1,3.9E1,5.831E3,1.1923E4,2.1562E4,1.1936E4,1.4813E4,3.656E3,4.537E3,4.01E2,6E1,3E0,2E0,1.9E1,7.6E1,1.1E1,3.8E1,1E0,3.292E3,2.539E3,5.876E3,6.047E3,1.2174E4,9.388E3,7.534E3,4.402E3,7.616E3,7.197E3,2.611E3,1.045E3,2.979E3,1.558E3,2.7E2,1.31E2,4.4E1,1.6E1,1E0,1E0,1.5E1,4E0,5E1,2.6E1,7E0,4E0,7E0,3.1E1],"tree_param":{"num_deleted":"0","num_feature":"25","num_nodes":"59","size_leaf_vector":"0"}},{"base_weights":[1.1844821E5,6.523288E4,1.8975755E5,3.4174555E4,9.693956E4,1.5625638E5,3.0371284E5,9.354034E3,5.0554734E4,8.748241E4,1.3136767E5,1.4677922E5,2.1662839E5,2.3954394E5,5.868912E5,-1.8850637E3,2.039439E4,4.2977055E4,6.0301887E4,9.867919E4,7.112429E4,7.1846725E5,1.2497686E5,1.705944E5,1.1870486E5,1.7467853E5,2.6883616E5,3.0967353E5,9.969484E4,2.9679588E6,5.320405E5,-4.721867E3,1.126103E4,1.5883561E4,2.7087037E4,3.3092957E4,4.895776E4,2.5154195E5,5.8941156E4,8.166346E4,1.0701939E5,6.4193582E4,8.7212164E4,5.122049E4,1.7693189E6,1.6923169E5,5.517158E4,1.891911E5,1.5673405E5,1.2863194E5,9.893545E4,1.5423172E5,2.0934472E5,2.8263038E5,1.6672152E5,3.0446888E5,1.6536948E6,9.412939E4,3.5439212E5,3.3651492E6,8.1833906E5,5.101366E5,2.6831905E6],"categories":[],"categories_nodes":[],"categories_segments":[],"categories_sizes":[],"default_left":[1,1,1,1,1,1,1,1,1,1,1,1,1,1,1,1,1,1,1,1,1,1,1,1,1,1,1,1,1,1,1,0,0,0,0,0,0,0,0,0,0,0,0,0,0,0,0,0,0,0,0,0,0,0,0,0,0,0,0,0,0,0,0],"id":15,"left_children":[1,3,5,7,9,11,13,15,17,19,21,23,25,27,29,31,33,35,37,39,41,43,45,47,49,51,53,55,57,59,61,-1,-1,-1,-1,-1,-1,-1,-1,-1,-1,-1,-1,-1,-1,-1,-1,-1,-1,-1,-1,-1,-1,-1,-1,-1,-1,-1,-1,-1,-1,-1,-1],"loss_changes":[2.8410054E14,4.2219126E13,1.2209773E14,8.806124E12,6.8962746E12,1.4116417E13,1.3192797E14,1.06877105E12,9.6121704E11,3.0420196E12,1.7057035E13,1.4271639E13,7.2964783E12,5.8098526E13,1.7369036E14,1.5925651E11,1.3074262E11,4.3257115E11,1.4697638E12,1.3933813E12,7.490335E11,3.4267065E13,1.396012E13,2.9508103E12,1.9132905E12,1.2875213E12,2.0545043E12,2.7106545E13,2.7747208E12,2.28604E13,6.0497903E13,0E0,0E0,0E0,0E0,0E0,0E0,0E0,0E0,0E0,0E0,0E0,0E0,0E0,0E0,0E0,0E0,0E0,0E0,0E0,0E0,0E0,0E0,0E0,0E0,0E0,0E0,0E0,0E0,0E0,0E0,0E0,0E0],"parents":[2147483647,0,0,1,1,2,2,3,3,4,4,5,5,6,6,7,7,8,8,9,9,10,10,11,11,12,12,13,13,14,14,15,15,16,16,17,17,18,18,19,19,20,20,21,21,22,22,23,23,24,24,25,25,26,26,27,27,28,28,29,29,30,30],"right_children":[2,4,6,8,10,12,14,16,18,20,22,24,26,28,30,32,34,36,38,40,42,44,46,48,50,52,54,56,58,60,62,-1,-1,-1,-1,-1,-1,-1,-1,-1,-1,-1,-1,-1,-1,-1,-1,-1,-1,-1,-1,-1,-1,-1,-1,-1,-1,-1,-1,-1,-1,-1,-1],"split_conditions":[2.0125E3,2.0075E3,2.1255E3,2.0015E3,2.6755E3,1.9515E3,2.5E0,1.9985E3,2.0055E3,1.98838E5,4.6673E4,1.11649E5,2.0155E3,3.9775E3,4E1,1.5E0,-5E-1,1.5E0,2.111E4,2.0105E3,1.8255E3,2.5E0,3.978E3,5.5798E4,1.7655E5,2.0145E3,1.5E0,3.9715E3,4.174E3,-5E-1,4.127E3,-2.3609337E2,5.630515E2,7.9417804E2,1.3543519E3,1.6546478E3,2.4478882E3,1.2577098E4,2.9470579E3,4.083173E3,5.3509697E3,3.2096792E3,4.3606084E3,2.5610244E3,8.8465945E4,8.461585E3,2.7585789E3,9.459555E3,7.8367026E3,6.431597E3,4.946773E3,7.711586E3,1.0467236E4,1.4131519E4,8.336076E3,1.5223444E4,8.268474E4,4.7064697E3,1.7719607E4,1.6825747E5,4.0916953E4,2.550683E4,1.3415953E5],"split_indices":[3,3,2,3,2,2,6,3,3,4,4,4,3,2,4,15,10,6,4,3,2,6,2,4,4,3,6,2,2,10,2,0,0,0,0,0,0,0,0,0,0,0,0,0,0,0,0,0,0,0,0,0,0,0,0,0,0,0,0,0,0,0,0],"split_type":[0,0,0,0,0,0,0,0,0,0,0,0,0,0,0,0,0,0,0,0,0,0,0,0,0,0,0,0,0,0,0,0,0,0,0,0,0,0,0,0,0,0,0,0,0,0,0,0,0,0,0,0,0,0,0,0,0,0,0,0,0,0,0],"sum_hessian":[7.4869E4,4.2875E4,3.1994E4,2.166E4,2.1215E4,2.4727E4,7.267E3,8.612E3,1.3048E4,1.6646E4,4.569E3,2.1375E4,3.352E3,5.926E3,1.341E3,4.268E3,4.344E3,7.344E3,5.704E3,9.879E3,6.767E3,4.8E1,4.521E3,1.1562E4,9.813E3,1.861E3,1.491E3,3.946E3,1.98E3,2.9E1,1.312E3,3.511E3,7.57E2,2.597E3,1.747E3,2.771E3,4.573E3,3.9E1,5.665E3,3.253E3,6.626E3,4.733E3,2.034E3,3E1,1.8E1,2.766E3,1.755E3,4.932E3,6.63E3,6.529E3,3.284E3,1.174E3,6.87E2,1.312E3,1.79E2,3.932E3,1.4E1,1.939E3,4.1E1,2.4E1,5E0,1.3E3,1.2E1],"tree_param":{"num_deleted":"0","num_feature":"25","num_nodes":"63","size_leaf_vector":"0"}},{"base_weights":[1.1253515E5,7.464065E4,1.9731486E5,1.0951673E5,4.6557113E4,4.087982E5,1.6987942E5,1.3464772E5,9.436177E4,5.919253E4,2.9199695E4,2.4522205E5,9.4081406E5,2.1797417E5,1.19763E5,1.2737718E5,2.0812194E5,8.90211E4,1.3761186E5,5.4605445E4,9.0053445E4,3.5568926E4,1.907447E4,2.0505198E5,2.8215475E5,8.080005E5,2.5541212E6,1.6949558E5,3.7620762E5,1.4995177E5,7.596961E4,1.2955565E5,1.4056763E2,1.6040367E5,2.2954517E5,9.8868484E4,7.297666E4,1.2460643E5,1.566393E5,6.39554E4,4.0117242E4,1.0372792E5,7.4670195E4,4.5439406E4,2.6800066E4,1.4250804E4,4.2686938E4,2.3981875E5,1.8743445E5,2.7469047E5,4.6024178E5,9.971862E5,4.2838966E5,5.1419485E6,1.8914399E6,1.4843477E5,2.1208677E5,4.7225475E5,3.1544062E5,1.1861866E5,2.3631558E5,5.8949652E4,1.18100664E5],"categories":[],"categories_nodes":[],"categories_segments":[],"categories_sizes":[],"default_left":[1,1,1,1,1,1,1,1,1,1,1,1,1,1,1,1,1,1,1,1,1,1,1,1,1,1,1,1,1,1,1,0,0,0,0,0,0,0,0,0,0,0,0,0,0,0,0,0,0,0,0,0,0,0,0,0,0,0,0,0,0,0,0],"id":16,"left_children":[1,3,5,7,9,11,13,15,17,19,21,23,25,27,29,31,33,35,37,39,41,43,45,47,49,51,53,55,57,59,61,-1,-1,-1,-1,-1,-1,-1,-1,-1,-1,-1,-1,-1,-1,-1,-1,-1,-1,-1,-1,-1,-1,-1,-1,-1,-1,-1,-1,-1,-1,-1,-1],"loss_changes":[2.4051897E14,5.0675245E13,1.3411653E14,8.7775374E12,6.2850303E12,2.3082087E14,4.932072E13,4.6103286E12,3.3141545E12,2.3433073E12,7.7823004E11,2.9567998E12,1.3164021E14,8.006685E13,1.32463E13,2.1899803E12,7.6055944E11,2.0184501E12,3.717139E11,1.9540801E12,4.4347215E11,6.403989E11,5.3084304E11,5.53472E11,1.2773082E12,4.1083006E13,7.087481E13,7.1427655E12,1.4144602E13,1.6032358E13,2.928719E12,0E0,0E0,0E0,0E0,0E0,0E0,0E0,0E0,0E0,0E0,0E0,0E0,0E0,0E0,0E0,0E0,0E0,0E0,0E0,0E0,0E0,0E0,0E0,0E0,0E0,0E0,0E0,0E0,0E0,0E0,0E0,0E0],"parents":[2147483647,0,0,1,1,2,2,3,3,4,4,5,5,6,6,7,7,8,8,9,9,10,10,11,11,12,12,13,13,14,14,15,15,16,16,17,17,18,18,19,19,20,20,21,21,22,22,23,23,24,24,25,25,26,26,27,27,28,28,29,29,30,30],"right_children":[2,4,6,8,10,12,14,16,18,20,22,24,26,28,30,32,34,36,38,40,42,44,46,48,50,52,54,56,58,60,62,-1,-1,-1,-1,-1,-1,-1,-1,-1,-1,-1,-1,-1,-1,-1,-1,-1,-1,-1,-1,-1,-1,-1,-1,-1,-1,-1,-1,-1,-1,-1,-1],"split_conditions":[1.5E0,1.6805E5,5.127E4,8.99035E4,2.49095E5,2.4305E3,1.60971E5,6.35E1,6.35E1,6.25E1,2.1425E3,1.098E3,3.9425E3,2.4485E3,1.5E0,4.1265E3,9.39E2,1.5E0,1.9805E3,1.5E0,1.5E0,1.5E0,6.25E1,1.695E4,2.1455E3,2.5E0,9.8E3,5.45E1,1.02658E5,3.038E3,2.5E0,6.4777827E3,7.0283813E0,8.0201836E3,1.1477259E4,4.9434243E3,3.6488328E3,6.230322E3,7.831965E3,3.19777E3,2.0058622E3,5.186396E3,3.7335098E3,2.2719705E3,1.3400033E3,7.125402E2,2.134347E3,1.19909375E4,9.371723E3,1.3734523E4,2.301209E4,4.985931E4,2.1419482E4,2.5709742E5,9.457199E4,7.4217383E3,1.0604339E4,2.3612738E4,1.5772031E4,5.930933E3,1.1815779E4,2.9474827E3,5.905033E3],"split_indices":[5,4,4,4,4,2,4,0,0,0,2,2,2,2,6,2,2,6,2,6,6,6,0,4,2,5,4,0,4,2,6,0,0,0,0,0,0,0,0,0,0,0,0,0,0,0,0,0,0,0,0,0,0,0,0,0,0,0,0,0,0,0,0],"split_type":[0,0,0,0,0,0,0,0,0,0,0,0,0,0,0,0,0,0,0,0,0,0,0,0,0,0,0,0,0,0,0,0,0,0,0,0,0,0,0,0,0,0,0,0,0,0,0,0,0,0,0,0,0,0,0,0,0,0,0,0,0,0,0],"sum_hessian":[7.4869E4,5.1743E4,2.3126E4,2.3079E4,2.8664E4,2.654E3,2.0472E4,8.679E3,1.44E4,1.6587E4,1.2077E4,2.031E3,6.23E2,1.0445E4,1.0027E4,7.9E3,7.79E2,1.282E4,1.58E3,1.4443E4,2.144E3,7.412E3,4.665E3,9.76E2,1.055E3,5.77E2,4.6E1,7.997E3,2.448E3,5.934E3,4.093E3,7.767E3,1.33E2,2.44E2,5.35E2,7.941E3,4.879E3,9.43E2,6.37E2,8.776E3,5.667E3,1.132E3,1.012E3,3.485E3,3.927E3,3.875E3,7.9E2,3.24E2,6.52E2,1.015E3,4E1,3.84E2,1.93E2,8E0,3.8E1,5.354E3,2.643E3,9.46E2,1.502E3,4.356E3,1.578E3,2.917E3,1.176E3],"tree_param":{"num_deleted":"0","num_feature":"25","num_nodes":"63","size_leaf_vector":"0"}},{"base_weights":[1.0691686E5,6.4474836E4,1.8278923E5,6.0226914E4,3.4660262E5,1.7558588E5,1.6739185E6,3.16413E4,9.053814E4,1.8015989E6,2.3161564E5,1.2127908E5,2.5301308E5,7.907104E5,3.6192888E6,7.3285234E3,4.5836855E4,7.659846E4,1.2404072E5,4.4200244E5,2.2434642E6,1.3928786E5,7.191866E5,1.4325481E5,1.02901305E5,1.9772492E5,4.4160447E5,1.1716032E6,1.8682656E5,3.8204462E6,-1.3513752E5,-1.9400945E3,1.9890674E4,3.958962E4,6.739571E4,8.8872055E4,6.101349E4,1.04927945E5,1.8447803E5,2.2637745E5,1.1571682E6,2.542495E6,7.6690856E5,4.445343E4,2.4981656E5,5.763494E5,1.041561E6,1.26855586E5,1.5739425E5,7.93661E4,1.1099016E5,1.8083189E5,2.4580322E5,7.0793556E5,3.8570097E5,7.491577E5,2.071825E6,9.304861E4,5.6204256E5,4.0557918E6,8.06063E5,-2.8831428E5,8.5608E4],"categories":[],"categories_nodes":[],"categories_segments":[],"categories_sizes":[],"default_left":[1,1,1,1,1,1,1,1,1,1,1,1,1,1,1,1,1,1,1,1,1,1,1,1,1,1,1,1,1,1,1,0,0,0,0,0,0,0,0,0,0,0,0,0,0,0,0,0,0,0,0,0,0,0,0,0,0,0,0,0,0,0,0],"id":17,"left_children":[1,3,5,7,9,11,13,15,17,19,21,23,25,27,29,31,33,35,37,39,41,43,45,47,49,51,53,55,57,59,61,-1,-1,-1,-1,-1,-1,-1,-1,-1,-1,-1,-1,-1,-1,-1,-1,-1,-1,-1,-1,-1,-1,-1,-1,-1,-1,-1,-1,-1,-1,-1,-1],"loss_changes":[2.4108296E14,5.7521843E13,2.881807E14,4.0983517E13,1.1870435E14,1.1235997E14,2.187817E14,8.4022793E12,1.0712236E13,3.0247827E13,2.965563E13,6.3307986E12,1.1479595E14,2.0482456E13,3.0725525E13,1.04514814E12,2.0675486E12,3.0962436E12,7.770812E12,1.8969497E12,1.5270018E13,5.827328E12,4.2346364E12,1.6386307E12,1.6207797E12,6.8770144E12,3.6904406E13,1.9364087E13,1.2144344E12,2.3688791E13,1.26121255E11,0E0,0E0,0E0,0E0,0E0,0E0,0E0,0E0,0E0,0E0,0E0,0E0,0E0,0E0,0E0,0E0,0E0,0E0,0E0,0E0,0E0,0E0,0E0,0E0,0E0,0E0,0E0,0E0,0E0,0E0,0E0,0E0],"parents":[2147483647,0,0,1,1,2,2,3,3,4,4,5,5,6,6,7,7,8,8,9,9,10,10,11,11,12,12,13,13,14,14,15,15,16,16,17,17,18,18,19,19,20,20,21,21,22,22,23,23,24,24,25,25,26,26,27,27,28,28,29,29,30,30],"right_children":[2,4,6,8,10,12,14,16,18,20,22,24,26,28,30,32,34,36,38,40,42,44,46,48,50,52,54,56,58,60,62,-1,-1,-1,-1,-1,-1,-1,-1,-1,-1,-1,-1,-1,-1,-1,-1,-1,-1,-1,-1,-1,-1,-1,-1,-1,-1,-1,-1,-1,-1,-1,-1],"split_conditions":[2.0135E3,2.966E3,2.843E3,2.0085E3,9.332E4,1.5E0,1.5E0,2.0025E3,1.5E0,3.472E3,2.0115E3,9.2479E4,2.428E3,4.57E2,1E1,1.9995E3,1.5E0,1.8935E5,2.7325E3,2.012E3,4.27E2,2.0055E3,3.91E3,1.389E3,1.3005E3,2.0175E3,2.726E3,3.55E2,5.74E2,5E4,4.105E2,-9.700472E1,9.945337E2,1.9794811E3,3.3697856E3,4.443603E3,3.0506746E3,5.2463975E3,9.223901E3,1.1318873E4,5.7858414E4,1.2712475E5,3.834543E4,2.2226716E3,1.2490828E4,2.8817469E4,5.207805E4,6.3427793E3,7.8697124E3,3.9683052E3,5.549508E3,9.041595E3,1.2290161E4,3.5396777E4,1.9285049E4,3.7457887E4,1.0359125E5,4.6524307E3,2.8102129E4,2.027896E5,4.0303152E4,-1.4415714E4,4.2804E3],"split_indices":[3,8,8,3,4,5,6,3,5,2,3,4,2,1,7,3,5,4,2,3,1,3,2,8,8,3,2,1,1,4,1,0,0,0,0,0,0,0,0,0,0,0,0,0,0,0,0,0,0,0,0,0,0,0,0,0,0,0,0,0,0,0,0],"split_type":[0,0,0,0,0,0,0,0,0,0,0,0,0,0,0,0,0,0,0,0,0,0,0,0,0,0,0,0,0,0,0,0,0,0,0,0,0,0,0,0,0,0,0,0,0,0,0,0,0,0,0,0,0,0,0,0,0,0,0,0,0,0,0],"sum_hessian":[7.4869E4,4.8013E4,2.6856E4,4.7302E4,7.11E2,2.6728E4,1.28E2,2.4345E4,2.2957E4,5.1E1,6.6E2,1.5711E4,1.1017E4,8.9E1,3.9E1,8.975E3,1.537E4,1.6214E4,6.743E3,1.3E1,3.8E1,5.56E2,1.04E2,7.152E3,8.559E3,8.521E3,2.496E3,5.4E1,3.5E1,3.7E1,2E0,5.165E3,3.81E3,1.1919E4,3.451E3,9.068E3,7.146E3,5.125E3,1.618E3,1.1E1,2E0,3.1E1,7E0,3E2,2.56E2,7.4E1,3E1,3.316E3,3.836E3,2.192E3,6.367E3,6.309E3,2.212E3,4.31E2,2.065E3,3.8E1,1.6E1,2.9E1,6E0,3.4E1,3E0,1E0,1E0],"tree_param":{"num_deleted":"0","num_feature":"25","num_nodes":"63","size_leaf_vector":"0"}},{"base_weights":[1.0158257E5,1.6422652E5,6.7664305E4,1.3575072E5,2.8827078E5,8.976299E4,4.4513895E4,1.2275778E5,1.7638636E5,3.852419E5,1.1300384E5,2.0062766E5,8.456112E4,9.8965734E4,4.058204E4,1.4621416E5,1.05707555E5,1.374462E5,2.0240675E5,1.71486E6,3.6548344E5,1.9356675E6,9.187948E4,1.8357542E5,4.21494E5,6.4859434E4,1.010889E5,6.107245E4,1.2276071E5,4.9415863E4,2.856439E4,1.3793192E5,2.3680052E5,7.88584E4,1.1988405E5,1.7524592E5,1.2625832E5,1.6267983E5,2.3258895E5,2.5494428E6,3.9469284E5,3.5668466E5,1.9479524E6,2.596036E6,-3.7864965E4,1.0563809E6,8.566135E4,3.2851588E5,1.6891727E5,4.7655678E5,2.7545194E5,5.2106766E4,7.715389E4,2.6998647E5,9.31632E4,-7.448893E3,6.955773E4,1.5452708E5,8.358476E4,4.5057324E4,8.088638E4,2.5555672E4,4.7089062E4],"categories":[],"categories_nodes":[],"categories_segments":[],"categories_sizes":[],"default_left":[1,1,1,1,1,1,1,1,1,1,1,1,1,1,1,1,1,1,1,1,1,1,1,1,1,1,1,1,1,1,1,0,0,0,0,0,0,0,0,0,0,0,0,0,0,0,0,0,0,0,0,0,0,0,0,0,0,0,0,0,0,0,0],"id":18,"left_children":[1,3,5,7,9,11,13,15,17,19,21,23,25,27,29,31,33,35,37,39,41,43,45,47,49,51,53,55,57,59,61,-1,-1,-1,-1,-1,-1,-1,-1,-1,-1,-1,-1,-1,-1,-1,-1,-1,-1,-1,-1,-1,-1,-1,-1,-1,-1,-1,-1,-1,-1,-1,-1],"loss_changes":[1.5907076E14,9.285223E13,2.484563E13,1.1271773E13,8.3389005E13,1.4314119E13,5.075217E12,6.4679355E12,5.220751E12,8.239036E13,6.7201734E13,4.114478E12,7.7231397E12,1.4324691E12,2.3477365E12,5.084822E12,3.5650074E12,8.566614E11,3.6828086E12,4.9676036E13,4.267788E13,2.6163473E13,1.0290992E13,2.1434236E12,5.0400854E11,1.6942975E12,1.7252556E13,3.598372E11,1.206673E12,1.745489E12,5.2142853E11,0E0,0E0,0E0,0E0,0E0,0E0,0E0,0E0,0E0,0E0,0E0,0E0,0E0,0E0,0E0,0E0,0E0,0E0,0E0,0E0,0E0,0E0,0E0,0E0,0E0,0E0,0E0,0E0,0E0,0E0,0E0,0E0],"parents":[2147483647,0,0,1,1,2,2,3,3,4,4,5,5,6,6,7,7,8,8,9,9,10,10,11,11,12,12,13,13,14,14,15,15,16,16,17,17,18,18,19,19,20,20,21,21,22,22,23,23,24,24,25,25,26,26,27,27,28,28,29,29,30,30],"right_children":[2,4,6,8,10,12,14,16,18,20,22,24,26,28,30,32,34,36,38,40,42,44,46,48,50,52,54,56,58,60,62,-1,-1,-1,-1,-1,-1,-1,-1,-1,-1,-1,-1,-1,-1,-1,-1,-1,-1,-1,-1,-1,-1,-1,-1,-1,-1,-1,-1,-1,-1,-1,-1],"split_conditions":[1.33225E5,2.4455E3,2.15091E5,5.3E1,3.9765E3,7.5E0,6E0,7.3994E4,9.375E2,3E0,8.65E1,3.8175E3,3.55E1,3E1,2.7555E5,2.078E3,1.1805E3,5.37E4,3.15E2,4E0,3.9715E3,8.015E4,1.25E1,4.5E0,1.953E5,2.05E1,4.45E1,2E0,2.905E5,6.35E1,6.35E1,6.896596E3,1.1840026E4,3.94292E3,5.9942026E3,8.762296E3,6.312916E3,8.1339917E3,1.1629448E4,1.2747214E5,1.9734643E4,1.7834232E4,9.739762E4,1.29801805E5,-1.8932483E3,5.2819043E4,4.283068E3,1.6425795E4,8.445863E3,2.382784E4,1.3772597E4,2.6053384E3,3.8576946E3,1.3499323E4,4.65816E3,-3.7244467E2,3.4778865E3,7.726354E3,4.179238E3,2.2528662E3,4.044319E3,1.2777836E3,2.3544531E3],"split_indices":[4,2,4,0,2,0,0,4,2,4,1,2,0,1,4,2,2,4,1,7,2,4,0,7,4,0,0,0,4,0,0,0,0,0,0,0,0,0,0,0,0,0,0,0,0,0,0,0,0,0,0,0,0,0,0,0,0,0,0,0,0,0,0],"split_type":[0,0,0,0,0,0,0,0,0,0,0,0,0,0,0,0,0,0,0,0,0,0,0,0,0,0,0,0,0,0,0,0,0,0,0,0,0,0,0,0,0,0,0,0,0,0,0,0,0,0,0,0,0,0,0,0,0,0,0,0,0,0,0],"sum_hessian":[7.4869E4,2.6297E4,4.8572E4,2.1389E4,4.908E3,2.4849E4,2.3723E4,1.621E4,5.179E3,3.159E3,1.749E3,1.112E3,2.3737E4,1.596E3,2.2127E4,6.82E3,9.39E3,2.077E3,3.102E3,4.5E1,3.114E3,1.9E1,1.73E3,1.034E3,7.8E1,1.0831E4,1.2906E4,6.17E2,9.79E2,1.2751E4,9.376E3,6.251E3,5.69E2,3.247E3,6.143E3,4.71E2,1.606E3,1.342E3,1.76E3,2.7E1,1.8E1,3.098E3,1.6E1,1.4E1,5E0,1E1,1.72E3,9.3E1,9.41E2,5.5E1,2.3E1,5.319E3,5.512E3,5.77E2,1.2329E4,6.8E1,5.49E2,5.39E2,4.4E2,1.1202E4,1.549E3,8.068E3,1.308E3],"tree_param":{"num_deleted":"0","num_feature":"25","num_nodes":"63","size_leaf_vector":"0"}},{"base_weights":[9.6511766E4,4.252642E4,1.4732961E5,1.6664072E4,6.2804715E4,9.872985E4,2.2523675E5,-4.8221838E2,3.0249428E4,5.0241797E4,9.652803E4,7.983687E4,1.1388091E5,2.0741986E5,4.272115E5,-1.0158619E4,6.457873E3,2.1128967E4,3.5398316E4,4.083533E4,6.242689E4,1.0546598E5,7.4319375E4,8.276782E4,6.3248582E4,1.0578134E5,1.3071431E5,2.6003388E5,1.6898412E5,3.930931E5,1.1581681E6,-1.344744E4,2.3597314E3,1.9689761E3,1.2318532E4,1.7878688E4,3.1426438E4,3.1672354E4,5.0452598E4,3.8450902E4,4.975713E4,6.494879E4,5.248586E4,9.216122E4,1.2279549E5,5.2940207E4,8.862144E4,8.0621305E4,8.927063E4,6.753181E4,4.9828902E4,1.0875532E5,7.982593E4,1.2598339E5,1.4695125E5,2.3235205E5,3.367751E5,1.2873796E5,1.9291486E5,4.765028E5,3.1796762E5,1.6362779E6,3.5170188E5],"categories":[],"categories_nodes":[],"categories_segments":[],"categories_sizes":[],"default_left":[1,1,1,1,1,1,1,1,1,1,1,1,1,1,1,1,1,1,1,1,1,1,1,1,1,1,1,1,1,1,1,0,0,0,0,0,0,0,0,0,0,0,0,0,0,0,0,0,0,0,0,0,0,0,0,0,0,0,0,0,0,0,0],"id":19,"left_children":[1,3,5,7,9,11,13,15,17,19,21,23,25,27,29,31,33,35,37,39,41,43,45,47,49,51,53,55,57,59,61,-1,-1,-1,-1,-1,-1,-1,-1,-1,-1,-1,-1,-1,-1,-1,-1,-1,-1,-1,-1,-1,-1,-1,-1,-1,-1,-1,-1,-1,-1,-1,-1],"loss_changes":[2.0539359E14,1.9038906E13,1.4599896E14,3.7170137E12,8.616275E12,6.7898903E12,5.3224107E13,4.7384484E11,4.1733954E11,1.6970196E12,1.0882793E12,5.0886554E11,1.7830322E12,2.749108E13,2.9471596E13,1.2136153E11,1.0807488E11,1.0704296E11,3.1750776E11,1.7616601E11,1.5849436E11,8.9595367E11,4.808649E11,1.1819129E11,8.8142774E10,6.785545E11,3.1003456E11,1.2128216E13,7.5558877E12,7.0420854E12,1.986023E13,0E0,0E0,0E0,0E0,0E0,0E0,0E0,0E0,0E0,0E0,0E0,0E0,0E0,0E0,0E0,0E0,0E0,0E0,0E0,0E0,0E0,0E0,0E0,0E0,0E0,0E0,0E0,0E0,0E0,0E0,0E0,0E0],"parents":[2147483647,0,0,1,1,2,2,3,3,4,4,5,5,6,6,7,7,8,8,9,9,10,10,11,11,12,12,13,13,14,14,15,15,16,16,17,17,18,18,19,19,20,20,21,21,22,22,23,23,24,24,25,25,26,26,27,27,28,28,29,29,30,30],"right_children":[2,4,6,8,10,12,14,16,18,20,22,24,26,28,30,32,34,36,38,40,42,44,46,48,50,52,54,56,58,60,62,-1,-1,-1,-1,-1,-1,-1,-1,-1,-1,-1,-1,-1,-1,-1,-1,-1,-1,-1,-1,-1,-1,-1,-1,-1,-1,-1,-1,-1,-1,-1,-1],"split_conditions":[2.0115E3,2.0055E3,1.5E0,2.0005E3,1.5E0,2.0145E3,2.0195E3,1.9975E3,2.0035E3,2.0095E3,2.5E0,2.5E0,2.0175E3,2.5E0,2.0215E3,1.5E0,1.9995E3,1.5E0,1.5E0,2.0085E3,1.5E0,2.0095E3,2.0095E3,2.0135E3,1.5E0,1.5E0,2.0205E3,2.0165E3,2.0145E3,5E-1,2.5E0,-6.72372E2,1.1798657E2,9.844881E1,6.1592664E2,8.939344E2,1.5713219E3,1.5836177E3,2.52263E3,1.9225452E3,2.4878564E3,3.2474395E3,2.624293E3,4.608061E3,6.139775E3,2.6470105E3,4.431072E3,4.0310652E3,4.4635317E3,3.3765906E3,2.491445E3,5.437766E3,3.9912966E3,6.2991694E3,7.3475625E3,1.1617603E4,1.6838756E4,6.436898E3,9.645743E3,2.382514E4,1.5898382E4,8.18139E4,1.7585094E4],"split_indices":[3,3,5,3,5,3,3,3,3,3,5,20,3,5,3,19,3,5,5,3,20,3,3,3,12,20,3,3,3,12,5,0,0,0,0,0,0,0,0,0,0,0,0,0,0,0,0,0,0,0,0,0,0,0,0,0,0,0,0,0,0,0,0],"split_type":[0,0,0,0,0,0,0,0,0,0,0,0,0,0,0,0,0,0,0,0,0,0,0,0,0,0,0,0,0,0,0,0,0,0,0,0,0,0,0,0,0,0,0,0,0,0,0,0,0,0,0,0,0,0,0,0,0,0,0,0,0,0,0],"sum_hessian":[7.4869E4,3.6304E4,3.8565E4,1.5956E4,2.0348E4,2.3751E4,1.4814E4,7.054E3,8.902E3,1.4827E4,5.521E3,1.0573E4,1.3178E4,1.3615E4,1.199E3,2.946E3,4.108E3,3.214E3,5.688E3,8.37E3,6.457E3,3.934E3,1.587E3,8.982E3,1.591E3,8.902E3,4.276E3,5.745E3,7.87E3,1.147E3,5.2E1,2.333E3,6.13E2,2.327E3,1.781E3,2.445E3,7.69E2,4.562E3,1.126E3,6.609E3,1.761E3,5.146E3,1.311E3,2.229E3,1.705E3,6.38E2,9.49E2,6.763E3,2.219E3,1.203E3,3.88E2,7.984E3,9.18E2,3.318E3,9.58E2,4.225E3,1.52E3,2.937E3,4.933E3,5.41E2,6.06E2,3.2E1,2E1],"tree_param":{"num_deleted":"0","num_feature":"25","num_nodes":"63","size_leaf_vector":"0"}},{"base_weights":[9.168959E4,5.4422293E4,1.5831134E5,5.0480613E4,3.1621847E5,1.516132E5,1.5449516E6,2.5474586E4,7.6996266E4,1.6621498E6,2.0985744E5,1.2263771E5,2.1305844E5,7.262332E5,3.3484442E6,5.5722036E3,3.943229E4,1.6000527E5,7.278359E4,7.8771156E5,2.2771475E6,1.2436568E5,6.613722E5,3.5816888E5,1.17639516E5,2.6183545E5,1.7536705E5,1.6435016E5,1.1336795E6,3.5372728E6,-1.59532E5,-4.662189E3,1.6423045E4,3.8392516E4,1.4217412E5,1.2036638E5,1.9101075E5,4.369168E4,8.195581E4,1.4241855E3,1.1316232E6,9.966677E5,2.6974735E6,5.9123105E4,2.6410047E5,3.908772E5,7.8539975E5,4.6168975E5,3.056065E5,8.4309266E4,1.325957E5,1.912528E5,6.2984056E5,1.5740786E5,2.0407308E5,4.722953E5,6.96451E4,1.4664241E6,2.1514767E5,3.796695E6,1.0657485E6,-3.0193612E5,6.2638125E4],"categories":[],"categories_nodes":[],"categories_segments":[],"categories_sizes":[],"default_left":[1,1,1,1,1,1,1,1,1,1,1,1,1,1,1,1,1,1,1,1,1,1,1,1,1,1,1,1,1,1,1,0,0,0,0,0,0,0,0,0,0,0,0,0,0,0,0,0,0,0,0,0,0,0,0,0,0,0,0,0,0,0,0],"id":20,"left_children":[1,3,5,7,9,11,13,15,17,19,21,23,25,27,29,31,33,35,37,39,41,43,45,47,49,51,53,55,57,59,61,-1,-1,-1,-1,-1,-1,-1,-1,-1,-1,-1,-1,-1,-1,-1,-1,-1,-1,-1,-1,-1,-1,-1,-1,-1,-1,-1,-1,-1,-1,-1,-1],"loss_changes":[1.858796E14,4.9530502E13,2.4921165E14,3.1362346E13,1.0157729E14,4.7562334E13,1.8804353E14,6.7628926E12,8.0165145E12,2.6170695E13,2.5432873E13,2.1343437E13,1.5698777E13,2.0418023E13,2.7060542E13,1.1147031E12,1.5232538E12,1.3387673E12,5.8270794E12,6.2178994E12,1.3458079E13,5.062364E12,3.2156303E12,1.9102748E12,8.857028E12,9.679147E13,2.459976E12,1.1045015E12,1.5577603E13,2.0318047E13,1.13826546E11,0E0,0E0,0E0,0E0,0E0,0E0,0E0,0E0,0E0,0E0,0E0,0E0,0E0,0E0,0E0,0E0,0E0,0E0,0E0,0E0,0E0,0E0,0E0,0E0,0E0,0E0,0E0,0E0,0E0,0E0,0E0,0E0],"parents":[2147483647,0,0,1,1,2,2,3,3,4,4,5,5,6,6,7,7,8,8,9,9,10,10,11,11,12,12,13,13,14,14,15,15,16,16,17,17,18,18,19,19,20,20,21,21,22,22,23,23,24,24,25,25,26,26,27,27,28,28,29,29,30,30],"right_children":[2,4,6,8,10,12,14,16,18,20,22,24,26,28,30,32,34,36,38,40,42,44,46,48,50,52,54,56,58,60,62,-1,-1,-1,-1,-1,-1,-1,-1,-1,-1,-1,-1,-1,-1,-1,-1,-1,-1,-1,-1,-1,-1,-1,-1,-1,-1,-1,-1,-1,-1,-1,-1],"split_conditions":[2.0135E3,2.966E3,2.843E3,2.0085E3,9.332E4,1.5915E3,1.5E0,2.0035E3,6E0,2.0095E3,2.0115E3,7.5E0,4.45E1,3.35E1,1E1,1.9995E3,2.709E3,1.939E3,2.05E1,2.5E0,3.618E3,2.0075E3,3.55E1,4.125E4,2.05E1,3.4E1,2.0165E3,2.996E3,5.6E1,3.8E4,1.65E1,-2.3310945E2,8.211523E2,1.9196259E3,7.1087065E3,6.0183193E3,9.550538E3,2.184584E3,4.0977905E3,7.120928E1,5.6581164E4,4.9833387E4,1.3487367E5,2.9561553E3,1.3205023E4,1.954386E4,3.926999E4,2.3084488E4,1.5280325E4,4.2154634E3,6.629785E3,9.56264E3,3.149203E4,7.870393E3,1.0203654E4,2.3614766E4,3.4822551E3,7.332121E4,1.0757384E4,1.8983475E5,5.3287426E4,-1.5096807E4,3.1319062E3],"split_indices":[3,8,8,3,4,8,6,3,0,3,3,0,0,0,7,3,8,8,0,6,8,3,0,4,0,0,3,8,0,4,0,0,0,0,0,0,0,0,0,0,0,0,0,0,0,0,0,0,0,0,0,0,0,0,0,0,0,0,0,0,0,0,0],"split_type":[0,0,0,0,0,0,0,0,0,0,0,0,0,0,0,0,0,0,0,0,0,0,0,0,0,0,0,0,0,0,0,0,0,0,0,0,0,0,0,0,0,0,0,0,0,0,0,0,0,0,0,0,0,0,0,0,0,0,0,0,0,0,0],"sum_hessian":[7.4869E4,4.8013E4,2.6856E4,4.7302E4,7.11E2,2.6728E4,1.28E2,2.4345E4,2.2957E4,5.1E1,6.6E2,1.8165E4,8.563E3,8.9E1,3.9E1,1.0036E4,1.4309E4,1.107E3,2.185E4,2.2E1,2.9E1,5.56E2,1.04E2,3.76E2,1.7789E4,3.73E3,4.833E3,3.8E1,5.1E1,3.7E1,2E0,5.165E3,4.871E3,1.4167E4,1.42E2,4.88E2,6.19E2,5.239E3,1.6611E4,7E0,1.5E1,8E0,2.1E1,3.8E2,1.76E2,3.4E1,7E1,1.24E2,2.52E2,5.512E3,1.2277E4,3.131E3,5.99E2,2.977E3,1.856E3,8E0,3E1,3.7E1,1.4E1,3.3E1,4E0,1E0,1E0],"tree_param":{"num_deleted":"0","num_feature":"25","num_nodes":"63","size_leaf_vector":"0"}},{"base_weights":[8.711578E4,3.821122E4,1.3315097E5,1.4903816E4,5.648622E4,8.838742E4,2.0490867E5,-5.581646E2,2.7154674E4,4.4871816E4,8.766367E4,1.11162195E5,7.3677266E4,3.917757E5,1.8384338E5,-1.247431E4,4.331782E3,1.8326916E4,3.1753982E4,5.0198594E4,2.657765E4,4.7238516E5,8.3991E4,1.0504632E5,1.6634892E5,6.688896E4,1.0740011E5,1.0188673E6,3.557291E5,2.2708156E5,1.5318027E5,-1.515174E4,2.23601E3,8.2796625E2,1.1496721E4,1.4174455E4,4.389074E4,1.727054E4,3.5513777E4,4.6404387E4,7.379425E4,2.2063541E4,4.766991E4,2.808099E5,2.2170305E6,1.1445712E5,7.862584E4,9.868141E4,1.232169E5,1.2868853E5,1.8089266E5,7.359199E4,4.6157293E4,9.712993E4,1.295786E5,1.3126234E6,1.714025E5,1.7539282E6,3.4756112E5,2.0028614E5,3.0661047E5,2.6261484E5,1.4342014E5],"categories":[],"categories_nodes":[],"categories_segments":[],"categories_sizes":[],"default_left":[1,1,1,1,1,1,1,1,1,1,1,1,1,1,1,1,1,1,1,1,1,1,1,1,1,1,1,1,1,1,1,0,0,0,0,0,0,0,0,0,0,0,0,0,0,0,0,0,0,0,0,0,0,0,0,0,0,0,0,0,0,0,0],"id":21,"left_children":[1,3,5,7,9,11,13,15,17,19,21,23,25,27,29,31,33,35,37,39,41,43,45,47,49,51,53,55,57,59,61,-1,-1,-1,-1,-1,-1,-1,-1,-1,-1,-1,-1,-1,-1,-1,-1,-1,-1,-1,-1,-1,-1,-1,-1,-1,-1,-1,-1,-1,-1,-1,-1],"loss_changes":[1.6855203E14,1.5463011E13,1.2386082E14,3.0226302E12,7.3645896E12,7.9492127E12,5.824593E13,4.1114406E11,3.6089417E11,1.4436396E12,7.7626627E12,3.127835E12,3.2970585E12,3.3544366E13,1.7619768E13,8.089308E10,1.2558892E11,3.2335626E11,3.1805617E11,1.02461184E12,3.175303E11,1.6757439E13,8.852666E11,9.5840685E11,4.8500834E11,1.6666822E12,5.3795095E11,1.9939788E13,1.5607408E13,1.1708182E13,8.2870723E12,0E0,0E0,0E0,0E0,0E0,0E0,0E0,0E0,0E0,0E0,0E0,0E0,0E0,0E0,0E0,0E0,0E0,0E0,0E0,0E0,0E0,0E0,0E0,0E0,0E0,0E0,0E0,0E0,0E0,0E0,0E0,0E0],"parents":[2147483647,0,0,1,1,2,2,3,3,4,4,5,5,6,6,7,7,8,8,9,9,10,10,11,11,12,12,13,13,14,14,15,15,16,16,17,17,18,18,19,19,20,20,21,21,22,22,23,23,24,24,25,25,26,26,27,27,28,28,29,29,30,30],"right_children":[2,4,6,8,10,12,14,16,18,20,22,24,26,28,30,32,34,36,38,40,42,44,46,48,50,52,54,56,58,60,62,-1,-1,-1,-1,-1,-1,-1,-1,-1,-1,-1,-1,-1,-1,-1,-1,-1,-1,-1,-1,-1,-1,-1,-1,-1,-1,-1,-1,-1,-1,-1,-1],"split_conditions":[2.0115E3,2.0055E3,1.5E0,2.0005E3,1.5E0,1.021345E5,3.14525E4,1.9965E3,1.5E0,2.6255E5,4.6673E4,6.35E1,5.25E1,3E0,2.5E0,1.5E0,-5E-1,1.5E0,2.05E1,6.2E1,5.25E1,4.50235E4,7.5E0,2.0195E3,2.0145E3,2.037055E5,2.0145E3,5E1,1.5E0,2.0165E3,7.5E0,-7.5758704E2,1.118005E2,4.139831E1,5.7483606E2,7.087228E2,2.1945369E3,8.63527E2,1.7756888E3,2.3202195E3,3.6897126E3,1.1031771E3,2.3834956E3,1.4040495E4,1.1085152E5,5.722856E3,3.9312922E3,4.9340703E3,6.160845E3,6.434427E3,9.044633E3,3.6795996E3,2.3078647E3,4.8564966E3,6.47893E3,6.563117E4,8.570125E3,8.7696414E4,1.7378057E4,1.0014308E4,1.5330523E4,1.3130742E4,7.1710073E3],"split_indices":[3,3,5,3,5,4,4,3,6,4,4,0,0,4,5,15,10,5,0,0,0,4,0,3,3,4,3,0,0,3,0,0,0,0,0,0,0,0,0,0,0,0,0,0,0,0,0,0,0,0,0,0,0,0,0,0,0,0,0,0,0,0,0],"split_type":[0,0,0,0,0,0,0,0,0,0,0,0,0,0,0,0,0,0,0,0,0,0,0,0,0,0,0,0,0,0,0,0,0,0,0,0,0,0,0,0,0,0,0,0,0,0,0,0,0,0,0,0,0,0,0,0,0,0,0,0,0,0,0],"sum_hessian":[7.4869E4,3.6304E4,3.8565E4,1.5956E4,2.0348E4,2.3751E4,1.4814E4,7.054E3,8.902E3,1.4827E4,5.521E3,9.318E3,1.4433E4,1.499E3,1.3315E4,2.052E3,5.002E3,3.051E3,5.851E3,1.1482E4,3.345E3,5.1E1,5.47E3,8.391E3,9.27E2,1.2017E4,2.416E3,8E1,1.419E3,5.522E3,7.793E3,1.736E3,3.16E2,3.36E3,1.642E3,2.626E3,4.25E2,1.207E3,4.644E3,9.894E3,1.588E3,2.757E3,5.88E2,4.7E1,4E0,8.16E2,4.654E3,6.219E3,2.172E3,2.61E2,6.66E2,9.079E3,2.938E3,1.655E3,7.61E2,5.9E1,2.1E1,7E0,1.412E3,4.133E3,1.389E3,6.36E2,7.157E3],"tree_param":{"num_deleted":"0","num_feature":"25","num_nodes":"63","size_leaf_vector":"0"}},{"base_weights":[8.276558E4,7.845891E4,4.635986E5,1.1964512E5,4.8165996E4,2.3787338E6,2.6365228E5,2.7173878E5,1.1245803E5,6.5517652E4,3.3047492E4,1.883823E6,3.1242935E6,6.1133056E5,1.5213064E5,3.2692966E5,2.2052258E5,8.2343195E4,1.3655147E5,1.5456817E5,6.150862E4,7.3980375E4,3.0351785E4,7.6110425E5,2.738777E6,3.661536E6,2.140089E6,2.6016031E5,7.920212E5,2.4646688E5,4.869826E4,3.7535538E5,2.677294E5,1.8154617E5,3.4654078E5,1.0328995E5,7.125447E4,2.9281825E5,1.1568389E5,1.0730629E5,2.1564394E5,5.474289E4,1.0356487E5,1.00876445E5,4.8647355E4,2.6924705E4,5.321063E4,1.0543809E5,1.1750726E6,2.8460035E6,-7.816959E4,2.5898631E5,2.2752655E6,4.4268272E5,1.1500389E5,8.6917606E5,1.8884836E5,1.833856E5,4.682959E5,-2.8563289E3,1.1574304E5],"categories":[],"categories_nodes":[],"categories_segments":[],"categories_sizes":[],"default_left":[1,1,1,1,1,1,1,1,1,1,1,1,1,1,1,1,1,1,1,1,1,1,1,1,1,0,1,1,1,1,1,0,0,0,0,0,0,0,0,0,0,0,0,0,0,0,0,0,0,0,0,0,0,0,0,0,0,0,0,0,0],"id":22,"left_children":[1,3,5,7,9,11,13,15,17,19,21,23,25,27,29,31,33,35,37,39,41,43,45,47,49,-1,51,53,55,57,59,-1,-1,-1,-1,-1,-1,-1,-1,-1,-1,-1,-1,-1,-1,-1,-1,-1,-1,-1,-1,-1,-1,-1,-1,-1,-1,-1,-1,-1,-1],"loss_changes":[1.2275959E14,9.23628E13,3.1988044E14,3.4265752E13,1.1188885E13,2.3264227E13,2.93362E13,3.9276385E12,2.1727535E13,7.0813525E12,2.513466E12,4.590914E13,8.02669E12,1.1469328E13,5.608271E12,1.8460642E12,3.557034E12,3.086278E12,5.4237417E13,2.444866E12,5.4028927E12,9.5444586E11,1.6743955E12,6.1188793E12,8.679894E12,0E0,2.7163823E12,1.6447253E12,5.466923E12,4.1260941E12,9.543153E11,0E0,0E0,0E0,0E0,0E0,0E0,0E0,0E0,0E0,0E0,0E0,0E0,0E0,0E0,0E0,0E0,0E0,0E0,0E0,0E0,0E0,0E0,0E0,0E0,0E0,0E0,0E0,0E0,0E0,0E0],"parents":[2147483647,0,0,1,1,2,2,3,3,4,4,5,5,6,6,7,7,8,8,9,9,10,10,11,11,12,12,13,13,14,14,15,15,16,16,17,17,18,18,19,19,20,20,21,21,22,22,23,23,24,24,26,26,27,27,28,28,29,29,30,30],"right_children":[2,4,6,8,10,12,14,16,18,20,22,24,26,28,30,32,34,36,38,40,42,44,46,48,50,-1,52,54,56,58,60,-1,-1,-1,-1,-1,-1,-1,-1,-1,-1,-1,-1,-1,-1,-1,-1,-1,-1,-1,-1,-1,-1,-1,-1,-1,-1,-1,-1,-1,-1],"split_conditions":[2.966E3,1.500835E5,5.1567E4,6E0,2.17022E5,4.65E1,1.785E5,9.50575E4,2.95E1,6E0,6E0,3.696E3,1.31975E4,3.55E1,2.9955E3,1.5975E3,1.9315E3,6.92715E4,4.45E1,1.939E3,6.35E1,2.765E5,6.35E1,3.35E1,3.9E1,1.830768E5,1.625E4,8.5E0,5.6E1,4E1,3.35E1,1.876777E4,1.3386471E4,9.077309E3,1.732704E4,5.1644976E3,3.5627234E3,1.4640913E4,5.784195E3,5.3653145E3,1.0782197E4,2.7371445E3,5.1782437E3,5.0438223E3,2.432368E3,1.3462352E3,2.6605315E3,5.271905E3,5.8753633E4,1.4230017E5,-3.9084797E3,1.2949315E4,1.1376327E5,2.2134137E4,5.750195E3,4.3458805E4,9.442418E3,9.16928E3,2.3414795E4,-1.4281645E2,5.787152E3],"split_indices":[8,4,4,0,4,0,4,4,0,0,0,8,4,0,8,8,8,4,0,8,0,4,0,0,0,0,4,0,0,0,0,0,0,0,0,0,0,0,0,0,0,0,0,0,0,0,0,0,0,0,0,0,0,0,0,0,0,0,0,0,0],"split_type":[0,0,0,0,0,0,0,0,0,0,0,0,0,0,0,0,0,0,0,0,0,0,0,0,0,0,0,0,0,0,0,0,0,0,0,0,0,0,0,0,0,0,0,0,0,0,0,0,0,0,0,0,0,0,0,0,0,0,0,0,0],"sum_hessian":[7.4869E4,7.4033E4,8.36E2,3.1374E4,4.2659E4,7.8E1,7.58E2,1.414E3,2.996E4,1.9861E4,2.2798E4,4.9E1,2.9E1,1.83E2,5.75E2,6.78E2,7.36E2,1.3318E4,1.6642E4,8.54E2,1.9007E4,1.407E3,2.1391E4,2.2E1,2.7E1,1.7E1,1.2E1,6.3E1,1.2E2,3E2,2.75E2,3.7E2,3.08E2,5.64E2,1.72E2,4.607E3,8.711E3,1.959E3,1.4683E4,4.83E2,3.71E2,1.6375E4,2.632E3,6.81E2,7.26E2,1.8604E4,2.787E3,9E0,1.3E1,2.6E1,1E0,1E0,1.1E1,2.7E1,3.6E1,1.06E2,1.4E1,2.35E2,6.5E1,1.56E2,1.19E2],"tree_param":{"num_deleted":"0","num_feature":"25","num_nodes":"61","size_leaf_vector":"0"}},{"base_weights":[7.8637375E4,5.030792E4,1.4201788E5,5.6630594E4,2.942825E4,1.3047896E5,4.7643238E5,8.740903E4,5.239188E4,4.2370824E4,1.5604135E4,1.1422826E5,2.0316133E5,2.742537E5,1.2529046E6,5.8676953E4,1.3015685E5,4.8592047E4,8.135886E4,3.530388E4,5.9836633E4,1.9504686E4,-1.2621077E4,1.7160245E5,1.01153836E5,2.181215E5,1.1660588E5,3.981338E5,2.6071182E3,1.7816815E6,1.9173339E5,3.622411E4,6.855786E4,1.2885667E5,2.0568864E5,4.4131543E4,6.619813E4,1.0086499E5,5.5307535E4,4.2320715E4,6.20942E3,1.2145464E5,3.6482027E4,9.153878E2,3.0217756E4,6.5677314E3,-2.449189E4,1.8876397E5,7.1326766E4,8.700931E4,1.2350849E5,1.7052231E5,2.687551E5,1.4310777E5,5.627849E4,3.2252738E5,7.8587706E5,-1.9179703E4,5.2414133E4,2.884865E6,1.3870861E6,1.2325451E5,1.3147895E6],"categories":[],"categories_nodes":[],"categories_segments":[],"categories_sizes":[],"default_left":[1,1,1,1,1,1,1,1,1,1,1,1,1,1,1,1,1,1,1,1,1,1,1,1,1,1,1,1,1,1,1,0,0,0,0,0,0,0,0,0,0,0,0,0,0,0,0,0,0,0,0,0,0,0,0,0,0,0,0,0,0,0,0],"id":23,"left_children":[1,3,5,7,9,11,13,15,17,19,21,23,25,27,29,31,33,35,37,39,41,43,45,47,49,51,53,55,57,59,61,-1,-1,-1,-1,-1,-1,-1,-1,-1,-1,-1,-1,-1,-1,-1,-1,-1,-1,-1,-1,-1,-1,-1,-1,-1,-1,-1,-1,-1,-1,-1,-1],"loss_changes":[1.3442459E14,6.8293335E12,8.917986E13,5.1768113E12,2.1515637E12,2.6383548E13,1.20692725E14,5.8952537E12,3.838694E12,7.646342E11,6.407725E11,1.3690594E13,5.2628784E12,2.0627398E13,8.887695E13,6.355692E11,1.6312907E11,2.420969E12,2.0509496E12,9.031055E11,2.5686154E12,1.0180189E12,1.612061E11,5.820335E12,4.6958253E12,8.3437793E12,9.576152E11,1.2088521E13,2.1043665E11,4.2141414E13,3.99085E12,0E0,0E0,0E0,0E0,0E0,0E0,0E0,0E0,0E0,0E0,0E0,0E0,0E0,0E0,0E0,0E0,0E0,0E0,0E0,0E0,0E0,0E0,0E0,0E0,0E0,0E0,0E0,0E0,0E0,0E0,0E0,0E0],"parents":[2147483647,0,0,1,1,2,2,3,3,4,4,5,5,6,6,7,7,8,8,9,9,10,10,11,11,12,12,13,13,14,14,15,15,16,16,17,17,18,18,19,19,20,20,21,21,22,22,23,23,24,24,25,25,26,26,27,27,28,28,29,29,30,30],"right_children":[2,4,6,8,10,12,14,16,18,20,22,24,26,28,30,32,34,36,38,40,42,44,46,48,50,52,54,56,58,60,62,-1,-1,-1,-1,-1,-1,-1,-1,-1,-1,-1,-1,-1,-1,-1,-1,-1,-1,-1,-1,-1,-1,-1,-1,-1,-1,-1,-1,-1,-1,-1,-1],"split_conditions":[1.5E0,2.1425E3,2.966E3,3.5E0,5.5E0,3.038E3,2.5E0,2.5E0,1.8935E3,1.954E3,4.165E3,4E0,1.5E0,1.5E0,1.6E1,1.4795E3,2.115E3,2.5E0,1.5E0,1.8565E3,1.9955E3,2.708E3,1.382E3,2.7615E3,1.936E3,5E-1,2.5E0,3.91E3,3.5535E3,2.9955E3,6.374E3,1.8112054E3,3.427893E3,6.4428335E3,1.0284433E4,2.2065771E3,3.3099067E3,5.0432495E3,2.7653767E3,2.116036E3,3.10471E2,6.072732E3,1.8241014E3,4.576939E1,1.5108878E3,3.2838657E2,-1.2245946E3,9.438198E3,3.5663384E3,4.350466E3,6.175425E3,8.526116E3,1.3437755E4,7.155388E3,2.8139246E3,1.6126369E4,3.9293855E4,-9.5898517E2,2.6207068E3,1.4424325E5,6.9354305E4,6.1627256E3,6.573948E4],"split_indices":[5,2,8,7,7,2,6,7,2,8,2,7,18,6,7,8,2,6,6,8,8,2,8,2,2,18,12,2,2,8,8,0,0,0,0,0,0,0,0,0,0,0,0,0,0,0,0,0,0,0,0,0,0,0,0,0,0,0,0,0,0,0,0],"split_type":[0,0,0,0,0,0,0,0,0,0,0,0,0,0,0,0,0,0,0,0,0,0,0,0,0,0,0,0,0,0,0,0,0,0,0,0,0,0,0,0,0,0,0,0,0,0,0,0,0,0,0,0,0,0,0,0,0,0,0,0,0,0,0],"sum_hessian":[7.4869E4,5.1743E4,2.3126E4,3.9715E4,1.2028E4,2.2356E4,7.7E2,4.805E3,3.491E4,6.211E3,5.817E3,1.8273E4,4.083E3,6.12E2,1.58E2,2.875E3,1.93E3,3.0864E4,4.046E3,4.424E3,1.787E3,5.111E3,7.06E2,3.389E3,1.4884E4,3.48E3,6.03E2,4.2E2,1.92E2,1.05E2,5.3E1,8.8E2,1.995E3,1.9E3,3E1,2.4628E4,6.236E3,2.312E3,1.734E3,3.564E3,8.6E2,4.9E2,1.297E3,1.869E3,3.242E3,2.7E2,4.36E2,2.893E3,4.96E2,9.119E3,5.765E3,1.796E3,1.684E3,4.18E2,1.85E2,3.53E2,6.7E1,1.34E2,5.8E1,2.6E1,7.9E1,5.1E1,2E0],"tree_param":{"num_deleted":"0","num_feature":"25","num_nodes":"63","size_leaf_vector":"0"}},{"base_weights":[7.4711445E4,4.2210023E4,1.3281356E5,2.0787746E4,7.018732E4,2.3532978E5,1.2504366E5,3.0905276E2,3.3210934E4,2.3274495E5,6.818444E4,5.65579E5,1.9128747E5,1.4497469E5,1.0570035E5,-1.0830948E4,8.233791E3,2.4805857E4,3.746287E4,1.125868E6,1.6363919E5,1.0443285E5,6.5002965E4,4.089479E5,2.6998245E6,1.8726608E5,7.313058E5,2.1991267E5,1.3895795E5,1.6090722E5,9.9917875E4,2.4837775E2,-1.6185913E4,1.4266263E4,2.2939104E2,1.6944812E4,2.9655799E4,3.15454E4,4.5708836E4,1.9677307E4,1.8280186E6,1.4007977E5,6.8207406E5,6.4891195E4,1.5674978E5,5.8919035E4,8.0987805E4,9.014932E5,2.5148747E5,1.551655E5,2.3501466E5,1.4257544E6,2.0586217E5,1.633954E5,2.951399E5,1.2470506E5,1.5342866E5,9.196826E4,2.4221331E5,8.971342E4,1.19082484E5],"categories":[],"categories_nodes":[],"categories_segments":[],"categories_sizes":[],"default_left":[1,1,1,1,1,1,1,1,1,1,1,1,1,1,1,1,1,1,1,1,1,1,1,1,0,1,1,1,1,1,1,0,0,0,0,0,0,0,0,0,0,0,0,0,0,0,0,0,0,0,0,0,0,0,0,0,0,0,0,0,0],"id":24,"left_children":[1,3,5,7,9,11,13,15,17,19,21,23,25,27,29,31,33,35,37,39,41,43,45,47,-1,49,51,53,55,57,59,-1,-1,-1,-1,-1,-1,-1,-1,-1,-1,-1,-1,-1,-1,-1,-1,-1,-1,-1,-1,-1,-1,-1,-1,-1,-1,-1,-1,-1,-1],"loss_changes":[1.4137898E14,2.8775123E13,2.1363268E13,6.918434E12,6.763114E12,2.739628E13,9.610258E12,9.066528E11,6.039693E11,1.5430908E13,2.3652939E12,7.31081E13,3.4896735E12,5.512574E12,4.0298873E12,2.5328127E11,2.897629E11,2.163941E11,5.469194E11,1.3944859E13,2.786965E12,3.4197293E12,1.8344292E12,1.5905017E13,0E0,2.5063777E12,4.0852138E12,3.8292695E12,2.3285937E12,6.7039113E12,2.2334082E12,0E0,0E0,0E0,0E0,0E0,0E0,0E0,0E0,0E0,0E0,0E0,0E0,0E0,0E0,0E0,0E0,0E0,0E0,0E0,0E0,0E0,0E0,0E0,0E0,0E0,0E0,0E0,0E0,0E0,0E0],"parents":[2147483647,0,0,1,1,2,2,3,3,4,4,5,5,6,6,7,7,8,8,9,9,10,10,11,11,12,12,13,13,14,14,15,15,16,16,17,17,18,18,19,19,20,20,21,21,22,22,23,23,25,25,26,26,27,27,28,28,29,29,30,30],"right_children":[2,4,6,8,10,12,14,16,18,20,22,24,26,28,30,32,34,36,38,40,42,44,46,48,-1,50,52,54,56,58,60,-1,-1,-1,-1,-1,-1,-1,-1,-1,-1,-1,-1,-1,-1,-1,-1,-1,-1,-1,-1,-1,-1,-1,-1,-1,-1,-1,-1,-1,-1],"split_conditions":[2.0135E3,2.0095E3,1.5225E4,2.0035E3,4.64435E4,1.75E2,1.0338E5,1.9985E3,2.0055E3,7.75E1,8.45E1,1.67E2,4E0,8.45E1,8.5E1,2.225E2,2.895E2,1.5E0,1.5E0,3.9E1,4.53E4,5.15E1,3.93E2,7.75E1,1.3499123E5,2.66E2,3.75E2,3.4E1,2.7E2,3.4E1,3.685E2,1.2418887E1,-8.0929565E2,7.133132E2,1.1469552E1,8.4724066E2,1.4827899E3,1.57727E3,2.285442E3,9.8386536E2,9.140093E4,7.0039883E3,3.4103703E4,3.2445598E3,7.8374893E3,2.945952E3,4.0493904E3,4.507466E4,1.2574374E4,7.758275E3,1.1750733E4,7.128772E4,1.0293108E4,8.1697705E3,1.4756995E4,6.2352534E3,7.671433E3,4.598413E3,1.2110666E4,4.4856714E3,5.9541245E3],"split_indices":[3,3,4,3,4,1,4,3,3,1,1,1,6,1,1,1,1,6,6,1,4,1,1,1,0,1,1,1,1,1,1,0,0,0,0,0,0,0,0,0,0,0,0,0,0,0,0,0,0,0,0,0,0,0,0,0,0,0,0,0,0],"split_type":[0,0,0,0,0,0,0,0,0,0,0,0,0,0,0,0,0,0,0,0,0,0,0,0,0,0,0,0,0,0,0,0,0,0,0,0,0,0,0,0,0,0,0,0,0,0,0,0,0,0,0,0,0,0,0,0,0,0,0,0,0],"sum_hessian":[7.4869E4,4.8013E4,2.6856E4,2.7193E4,2.082E4,1.89E3,2.4966E4,1.0268E4,1.6925E4,2.52E2,2.0568E4,2.21E2,1.669E3,1.2293E4,1.2673E4,4.268E3,6E3,5.688E3,1.1237E4,1.7E1,2.35E2,1.657E3,1.8911E4,2.07E2,1.4E1,1.658E3,1.1E1,9.11E2,1.1382E4,1.199E3,1.1474E4,1.391E3,2.877E3,3.421E3,2.579E3,2.172E3,3.516E3,6.545E3,4.692E3,7E0,1E1,2.26E2,9E0,9.45E2,7.12E2,1.3701E4,5.21E3,4.9E1,1.58E2,9.94E2,6.64E2,4E0,7E0,5.22E2,3.89E2,5.739E3,5.643E3,6.5E2,5.49E2,7.491E3,3.983E3],"tree_param":{"num_deleted":"0","num_feature":"25","num_nodes":"61","size_leaf_vector":"0"}},{"base_weights":[7.098276E4,4.010281E4,1.26186195E5,3.680387E4,2.5921722E5,1.2037475E5,1.329349E6,1.659197E4,5.8236145E4,1.8161561E6,1.904509E5,9.229712E4,1.7971497E5,6.368005E5,2.8543492E6,-1.379817E3,2.7085639E4,4.629221E4,7.098042E4,2.629232E5,2.2774478E6,1.00666664E5,6.377015E5,1.0970575E5,7.868211E4,2.1351723E5,5.1750016E4,9.1165925E5,1.9918855E5,2.172789E6,4.1027602E6,-1.02069375E4,6.3053438E3,2.614315E4,9.773148E4,5.449162E4,3.4073754E4,6.3582195E4,9.417992E4,-1.8388678E4,1.1160531E6,1.8614136E6,3.7882568E6,2.807428E4,2.1023105E5,3.485979E5,8.144438E5,9.583653E4,1.2380027E5,5.9717934E4,8.3441445E4,1.6923053E5,2.81539E5,4.7660723E4,3.9492816E5,1.2077482E6,3.331161E5,4.385032E5,7.3683945E3,2.283853E6,-4.1297194E5],"categories":[],"categories_nodes":[],"categories_segments":[],"categories_sizes":[],"default_left":[1,1,1,1,1,1,1,1,1,1,1,1,1,1,1,1,1,1,1,1,1,1,1,1,1,1,1,1,1,1,0,0,0,0,0,0,0,0,0,0,0,0,0,0,0,0,0,0,0,0,0,0,0,0,0,0,0,0,0,0,0],"id":25,"left_children":[1,3,5,7,9,11,13,15,17,19,21,23,25,27,29,31,33,35,37,39,41,43,45,47,49,51,53,55,57,59,-1,-1,-1,-1,-1,-1,-1,-1,-1,-1,-1,-1,-1,-1,-1,-1,-1,-1,-1,-1,-1,-1,-1,-1,-1,-1,-1,-1,-1,-1,-1],"loss_changes":[1.2762428E14,3.4697111E13,1.8762726E14,2.0490077E13,7.588435E13,4.4517504E13,1.34424E14,4.591449E12,3.491305E12,2.0896006E13,2.7362394E13,4.2922997E12,3.711907E13,1.0643734E13,2.5120257E13,6.089768E11,1.02089045E12,1.1857255E12,1.9000197E12,1.9404873E12,7.405094E12,4.527616E12,5.5411244E12,1.5443511E12,9.1437505E11,2.0406967E13,2.5002E12,9.019196E12,1.6493623E12,8.984359E12,0E0,0E0,0E0,0E0,0E0,0E0,0E0,0E0,0E0,0E0,0E0,0E0,0E0,0E0,0E0,0E0,0E0,0E0,0E0,0E0,0E0,0E0,0E0,0E0,0E0,0E0,0E0,0E0,0E0,0E0,0E0],"parents":[2147483647,0,0,1,1,2,2,3,3,4,4,5,5,6,6,7,7,8,8,9,9,10,10,11,11,12,12,13,13,14,14,15,15,16,16,17,17,18,18,19,19,20,20,21,21,22,22,23,23,24,24,25,25,26,26,27,27,28,28,29,29],"right_children":[2,4,6,8,10,12,14,16,18,20,22,24,26,28,30,32,34,36,38,40,42,44,46,48,50,52,54,56,58,60,-1,-1,-1,-1,-1,-1,-1,-1,-1,-1,-1,-1,-1,-1,-1,-1,-1,-1,-1,-1,-1,-1,-1,-1,-1,-1,-1,-1,-1,-1,-1],"split_conditions":[2.0135E3,2.966E3,2.843E3,2.0085E3,4.8673E4,1.962E3,1.5E0,2.0025E3,1.5295E3,2.5E0,2.0115E3,8.6009E4,3.961E3,1.51E5,3.8015E3,1.9985E3,2.678E3,1.8985E5,2.6755E3,2.012E3,6.13E3,2.0065E3,3.24E3,9.355E2,5.93E2,2.0165E3,1.976E3,2.0175E3,2.996E3,3.6455E3,2.0513802E5,-5.103469E2,3.1526718E2,1.3071576E3,4.8865737E3,2.724581E3,1.7036877E3,3.1791099E3,4.708996E3,-9.194339E2,5.5802656E4,9.307068E4,1.8941284E5,1.403714E3,1.0511553E4,1.7429896E4,4.072219E4,4.7918267E3,6.1900137E3,2.9858967E3,4.1720723E3,8.461526E3,1.407695E4,2.3830361E3,1.9746408E4,6.0387414E4,1.6655805E4,2.192516E4,3.6841974E2,1.1419265E5,-2.0648598E4],"split_indices":[3,8,8,3,4,2,6,3,8,6,3,4,2,4,2,3,8,4,2,3,8,3,2,2,2,3,8,3,8,2,0,0,0,0,0,0,0,0,0,0,0,0,0,0,0,0,0,0,0,0,0,0,0,0,0,0,0,0,0,0,0],"split_type":[0,0,0,0,0,0,0,0,0,0,0,0,0,0,0,0,0,0,0,0,0,0,0,0,0,0,0,0,0,0,0,0,0,0,0,0,0,0,0,0,0,0,0,0,0,0,0,0,0,0,0,0,0,0,0,0,0,0,0,0,0],"sum_hessian":[7.4869E4,4.8013E4,2.6856E4,4.7302E4,7.11E2,2.6728E4,1.28E2,2.4345E4,2.2957E4,2.9E1,6.82E2,1.8145E4,8.583E3,8.9E1,3.9E1,8.975E3,1.537E4,1.1853E4,1.1104E4,7E0,2.2E1,5.69E2,1.13E2,7.96E3,1.0185E4,6.789E3,1.794E3,5.4E1,3.5E1,2.7E1,1.2E1,4.177E3,4.798E3,1.5169E4,2.01E2,7.091E3,4.762E3,8.422E3,2.682E3,6E0,1E0,1.9E1,3E0,3.43E2,2.26E2,4.4E1,6.9E1,4.016E3,3.944E3,2.046E3,8.139E3,4.114E3,2.675E3,1.774E3,2E1,3.5E1,1.9E1,1.5E1,2E1,2.6E1,1E0],"tree_param":{"num_deleted":"0","num_feature":"25","num_nodes":"61","size_leaf_vector":"0"}},{"base_weights":[6.744546E4,6.3752086E4,3.9404994E5,9.615522E4,3.563326E4,2.0583008E6,2.2030833E5,7.785194E4,1.31040086E5,4.764471E4,2.2208307E4,2.6845148E6,7.5283244E5,6.362121E5,1.465725E5,1.05830555E5,6.622703E4,1.7476266E5,1.07485375E5,3.8048453E4,6.3308418E4,2.790982E4,1.2378797E4,2.7809955E6,1.495058E5,1.3257365E6,3.3784556E5,7.4915856E5,2.4452711E5,2.4166066E5,4.078572E4,8.822759E4,1.341145E5,5.092708E4,7.635841E4,1.7265886E5,2.3079755E6,1.6501772E5,9.973409E4,3.0873441E4,4.681194E4,9.9542836E4,5.8403254E4,2.4484418E4,4.3751047E4,1.159579E4,5.7110953E4,3.0105295E6,1.3753332E6,3.8070378E5,1.811369E6,2.1770617E4,6.1638206E5,6.308626E5,1.2828079E6,-1.15078945E5,3.3148662E5,4.12616E5,1.5699402E5,-5.150899E3,9.707876E4],"categories":[],"categories_nodes":[],"categories_segments":[],"categories_sizes":[],"default_left":[1,1,1,1,1,1,1,1,1,1,1,1,1,1,1,1,1,1,1,1,1,1,1,1,0,1,1,1,1,1,1,0,0,0,0,0,0,0,0,0,0,0,0,0,0,0,0,0,0,0,0,0,0,0,0,0,0,0,0,0,0],"id":26,"left_children":[1,3,5,7,9,11,13,15,17,19,21,23,25,27,29,31,33,35,37,39,41,43,45,47,-1,49,51,53,55,57,59,-1,-1,-1,-1,-1,-1,-1,-1,-1,-1,-1,-1,-1,-1,-1,-1,-1,-1,-1,-1,-1,-1,-1,-1,-1,-1,-1,-1,-1,-1],"loss_changes":[9.028853E13,6.745179E13,2.4156475E14,2.195188E13,6.390861E12,6.2561735E13,2.3183009E13,7.331249E12,1.2169773E13,3.1421377E12,1.0487805E12,1.2546908E13,5.971292E12,4.8601036E12,6.488302E12,3.2846433E12,2.4672742E12,1.8190168E13,3.4146835E12,8.143996E11,1.4064739E12,6.417778E11,2.4010346E11,1.2314544E13,0E0,4.358729E12,1.483234E12,4.7460353E12,8.824687E11,4.8564546E12,7.9437496E11,0E0,0E0,0E0,0E0,0E0,0E0,0E0,0E0,0E0,0E0,0E0,0E0,0E0,0E0,0E0,0E0,0E0,0E0,0E0,0E0,0E0,0E0,0E0,0E0,0E0,0E0,0E0,0E0,0E0,0E0],"parents":[2147483647,0,0,1,1,2,2,3,3,4,4,5,5,6,6,7,7,8,8,9,9,10,10,11,11,12,12,13,13,14,14,15,15,16,16,17,17,18,18,19,19,20,20,21,21,22,22,23,23,25,25,26,26,27,27,28,28,29,29,30,30],"right_children":[2,4,6,8,10,12,14,16,18,20,22,24,26,28,30,32,34,36,38,40,42,44,46,48,-1,50,52,54,56,58,60,-1,-1,-1,-1,-1,-1,-1,-1,-1,-1,-1,-1,-1,-1,-1,-1,-1,-1,-1,-1,-1,-1,-1,-1,-1,-1,-1,-1,-1,-1],"split_conditions":[2.966E3,1.601645E5,5.1567E4,1.5905E3,2.33175E5,3.245E2,1.445E5,6.7111E4,8.5721E4,1.5905E3,2.9775E5,3.17955E4,4.605E2,4.439E3,2.9955E3,1.3935E3,1.3895E3,2.846E3,8.55E1,1.4135E3,8.55E1,1.9505E3,2.678E3,3.9481E4,7.47529E3,1.02795E4,5.645E2,3.75E3,4.563E3,2.296E5,3.735E2,4.41138E3,6.705725E3,2.546354E3,3.8179204E3,8.632943E3,1.1539877E5,8.250886E3,4.9867046E3,1.5436721E3,2.3405972E3,4.977142E3,2.9201628E3,1.224221E3,2.1875525E3,5.797895E2,2.8555476E3,1.5052648E5,6.8766664E4,1.903519E4,9.056845E4,1.0885309E3,3.0819104E4,3.154313E4,6.4140395E4,-5.7539473E3,1.6574332E4,2.06308E4,7.8497007E3,-2.5754495E2,4.853938E3],"split_indices":[8,4,4,8,4,1,4,4,4,8,4,10,1,8,8,8,8,8,1,8,1,8,8,4,0,4,1,8,8,4,1,0,0,0,0,0,0,0,0,0,0,0,0,0,0,0,0,0,0,0,0,0,0,0,0,0,0,0,0,0,0],"split_type":[0,0,0,0,0,0,0,0,0,0,0,0,0,0,0,0,0,0,0,0,0,0,0,0,0,0,0,0,0,0,0,0,0,0,0,0,0,0,0,0,0,0,0,0,0,0,0,0,0,0,0,0,0,0,0,0,0,0,0,0,0],"sum_hessian":[7.4869E4,7.4033E4,8.36E2,3.4395E4,3.9638E4,7.8E1,7.58E2,2.2561E4,1.1834E4,2.0919E4,1.8719E4,5.2E1,2.6E1,1.13E2,6.45E2,6.62E3,1.5941E4,4.141E3,7.693E3,1.2974E4,7.945E3,1.1846E4,6.873E3,5E1,2E0,1E1,1.6E1,8.7E1,2.6E1,3.39E2,3.06E2,4.083E3,2.537E3,6.353E3,9.588E3,4.138E3,3E0,9.11E2,6.782E3,7.136E3,5.838E3,9.45E2,7E3,9.742E3,2.104E3,6.756E3,1.17E2,4.2E1,8E0,4E0,6E0,8E0,8E0,7.3E1,1.4E1,5E0,2.1E1,1.11E2,2.28E2,1.69E2,1.37E2],"tree_param":{"num_deleted":"0","num_feature":"25","num_nodes":"61","size_leaf_vector":"0"}},{"base_weights":[6.4082285E4,6.088539E4,1.2003651E6,3.9105082E4,1.099962E5,6.102912E5,1.5889041E6,2.4305498E4,5.277113E4,9.1086766E4,1.9247878E5,8.5974994E5,-2.2799832E4,1.1584599E6,2.4853978E6,2.9136184E4,6.988822E3,5.980765E4,3.1107299E4,6.7271E4,1.1461121E5,1.7313417E5,3.974922E5,1.3851222E5,1.0521995E6,-1.1211436E3,-2.715442E5,1.9862831E6,5.630735E5,2.557739E6,-1.6795862E5,3.7613117E4,1.656553E4,-6.8196035E3,1.7409951E4,6.522254E4,3.5052094E4,1.1092359E4,4.0280203E4,4.426319E4,7.997468E4,1.0870414E5,3.3833462E5,2.0011167E5,1.2004942E5,1.2778551E6,2.9224475E5,2.151362E5,4.9086978E2,9.1827206E5,1.8366461E6,-3.1954498E4,3.822323E4,2.0746654E6,7.605583E5,2.0099327E5,1.2358365E6,2.6256502E6,-1.144125E4],"categories":[],"categories_nodes":[],"categories_segments":[],"categories_sizes":[],"default_left":[1,1,1,1,1,1,1,1,1,1,1,1,1,1,1,1,1,1,1,1,1,1,1,1,1,1,0,1,1,1,0,0,0,0,0,0,0,0,0,0,0,0,0,0,0,0,0,0,0,0,0,0,0,0,0,0,0,0,0],"id":27,"left_children":[1,3,5,7,9,11,13,15,17,19,21,23,25,27,29,31,33,35,37,39,41,43,45,47,49,51,-1,53,55,57,-1,-1,-1,-1,-1,-1,-1,-1,-1,-1,-1,-1,-1,-1,-1,-1,-1,-1,-1,-1,-1,-1,-1,-1,-1,-1,-1,-1,-1],"loss_changes":[2.7189804E14,7.985675E13,4.7176323E13,1.045999E13,3.5758824E13,1.3443661E13,4.5742945E13,2.0771955E12,4.0973485E12,1.0447726E13,1.6893348E13,8.321168E12,1.3450686E11,4.176168E13,8.107506E12,2.068464E12,7.797657E11,2.7184962E12,1.2103629E12,2.7076833E12,1.2368608E13,5.575463E12,3.3723936E13,1.4795484E11,3.3562904E12,3.033626E10,0E0,2.3220506E12,1.2418504E13,6.8346016E12,0E0,0E0,0E0,0E0,0E0,0E0,0E0,0E0,0E0,0E0,0E0,0E0,0E0,0E0,0E0,0E0,0E0,0E0,0E0,0E0,0E0,0E0,0E0,0E0,